tree
version=v3
num_class=1
num_tree_per_iteration=1
label_index=0
max_feature_idx=11
objective=regression
feature_names=Volume_2018 sfdc_tier poc_image sub_segment Sub-Brand Pack_Type Returnalility Volume_2019_Product province Tax_Percent Unit_price_af_tax delta_vol
feature_infos=[-21.100000000000001:8537.6399999999994] -1:2:1:0 -1:0:1 -1:0:4:1:11:12:5:3:10:9:8:2:7:6 -1:42:37:32:35:43:61:31:60:52:4:51:15:57:55:59:5:29:39:8:6:36:33:47:62:2:28:30:41:10:48:26:53:45:46:0:22:20:54:27:38:18:25:19:17:24:34:58:16:56:40:3:13:7:1:44:9:12:14:11:21 -1:0:3:2:4 -1:1:0 [-18.399999999999999:28.5] -1:10:1:3:2:6:4:0:5:8:9:7 [0:0.59692662570824984] [68.106135332412705:2113.6104411973333] [-5733.2119999999995:1157.5549999999989]
tree_sizes=2623 2713 2719 2701 2727 2685 2646 2627 2661 2691 2674 2634 2610 2678 2681 2691 2707 2658 2660 2675 2716 2727 2708 2640 2698 2709 2698 2692 2674 2706 2703 2729 2678 2626 2669 2698 2649 2714 2656 2665 2649 2654 2710 2649 2642 2698 2673 2687 2694 2740 2664 2644 2696 2634 2725 2672 2656 2644 2720 2680 2633 2656 2718 2642 2643 2727 2663 2665 2695 2704 2680 2739 2727 2638 2651 2722 2604 2661 2661 2680 2619 2684 2691 2640 2627 2636 2712 2656 2709 2737 2670 2672 2713 2698 2694 2700 2737 2697 2686 2718 2679 2671 2734 2687 2684 2690 2656 2706 2718 2759 2704 2710 2701 2686 2676 2638 2649 2736 2709 2624 2653 2725 2633 2693 2677 2700 2702 2723 2687 2686 2681 2716 2712 2702 2675 2715 2667 2699 2691 2691 2707 2697 2710 2727 2651 2686 2730 2654 2712 2729 2685 2690 2707 2680 2688 2718 2705 2732 2735 2725 2712 2705 2746 2730 2731 2766 2720 2744 2673 2716 2714 2721 2658 2657 2673 2717 2691 2718 2729 2709 2689 2705 2716 2712 2697 2695 2744 2686 2713 2747 2702 2691 2642 2739 2727 2764 2742 2733 2710 2709 2708 2706 2706 2705 2704 2659 2764 2756 2674 2733 2685 2765 2693 2734 2722 2648 2691 2740 2755 2728 2727 2696 2752 2678 2718 2683 2752 2706 2700 2720 2759 2695 2705 2734 2792 2765 2733 2719 2737 2750 2708 2729 2742 2749 2727 2765 2733 2778 2811 2722 2750 2733 2763 2871 2411 2737 324

Tree=0
num_leaves=30
num_cat=0
split_feature=7 7 7 7 7 7 7 7 7 9 7 7 7 0 9 7 7 7 9 0 9 7 10 7 10 9 7 10 9
split_gain=81994.9 14937.7 11292.7 6161.14 2315.68 1984.21 1492.96 1033.23 511.713 303.699 299.374 291.226 260.647 200.832 167.976 147.475 134.874 117.182 117.11 112.505 87.8646 84.1158 79.734 78.8564 66.8222 63.8733 62.794 60.7203 55.9078
threshold=2.2000000000000011 0.45200000000000007 7.1810000000000009 1.0000000180025095e-35 1.0100000000000002 12.250000000000002 0.18850000000000003 3.600000000000001 19.929000000000002 0.10028388038330587 0.6150000000000001 1.4425000000000001 0.090000000000000024 281.5660000000002 0.10120865207630682 0.27350000000000008 5.3035000000000005 10.720000000000001 0.10028388038330587 20.930000000000003 0.094943779912947932 -0.17549999999999996 294.16684397163135 25.609999999999999 387.75671686067068 0.098600167417659201 3.0000000000000009 331.679874360893 0.098654210581256355
decision_type=2 2 2 2 2 2 2 2 2 2 2 2 2 2 2 2 2 2 2 2 2 2 2 2 2 2 2 2 2
left_child=1 3 7 13 10 14 12 20 9 -7 -3 -6 -5 21 17 -8 24 -4 -10 22 26 -1 -11 -20 25 -9 -2 -13 -18
right_child=2 4 5 6 11 8 15 16 18 19 -12 27 -14 -15 -16 -17 28 -19 23 -21 -22 -23 -24 -25 -26 -27 -28 -29 -30
leaf_value=2.5361026944091769 4.2329216396511811 3.78462542323792 4.7032618761166676 3.486930020578682 3.9867581464026283 5.0433430814861531 3.6372006627114728 4.4073472948944969 5.289293034030135 4.7615686255675893 3.878297962057224 4.0423007455096274 3.5735458474449757 2.0778213219741231 4.5680964844400354 3.7071225827571705 4.5463812428541255 4.8850806517566694 5.0278071209610555 4.8705040782925257 4.1699504387267705 2.7804781863697086 4.3725941603151339 5.2543983295228083 4.5025256788428578 4.2761610752759855 4.3301899702389068 4.1185496440913063 4.4202337531853368
leaf_weight=107 827 2373 697 2629 2185 544 1899 622 276 53 3212 619 2948 26 306 3309 548 178 181 245 587 119 35 93 210 195 391 1285 189
leaf_count=107 827 2373 697 2629 2185 544 1899 622 276 53 3212 619 2948 26 306 3309 548 178 181 245 587 119 35 93 210 195 391 1285 189
internal_value=3.93154 3.7408 4.57106 3.58178 3.92222 4.8874 3.60462 4.33989 5.04611 4.95126 3.8385 4.03658 3.53272 2.60422 4.69564 3.68163 4.44875 4.74025 5.19734 4.80083 4.23351 2.66478 4.60686 5.10472 4.4019 4.37604 4.26415 4.09376 4.51403
internal_weight=0 20711 6177 11037 9674 2608 10785 3569 1427 877 5585 4089 5577 252 1181 5208 1764 875 550 333 1805 226 88 274 1027 817 1218 1904 737
internal_count=26888 20711 6177 11037 9674 2608 10785 3569 1427 877 5585 4089 5577 252 1181 5208 1764 875 550 333 1805 226 88 274 1027 817 1218 1904 737
is_linear=0
shrinkage=1


Tree=1
num_leaves=30
num_cat=3
split_feature=7 7 7 7 7 7 7 7 7 9 7 7 7 11 7 9 7 0 10 7 1 8 10 10 10 7 4 10 7
split_gain=52530 9275.38 7636.15 3789.35 1795.28 1249.59 821.859 694.646 318.768 218.907 172.01 167.903 164.064 146.777 130.077 109.599 103.065 95.0392 96.8207 80.1584 78.8917 65.0609 59.9629 58.7239 57.3236 56.1108 54.1562 49.2123 47.3953
threshold=2.100000000000001 0.36950000000000005 8.8100000000000023 1.0000000180025095e-35 0.84250000000000014 4.2150000000000016 17.525000000000002 0.12000000000000006 1.2095000000000002 0.10028388038330587 11.265000000000002 6.205000000000001 0.59850000000000014 -41.340000000000003 3.0000000000000009 0.10028388038330587 0.20000000000000009 18.809000000000001 302.83928571428584 25.609999999999999 0 1 285.82478070175443 285.83315098468285 273.97442442442451 -0.17549999999999996 2 487.53147408911121 12.630000000000001
decision_type=2 2 2 2 2 2 2 2 2 2 2 2 2 2 2 2 2 2 2 2 1 1 2 2 2 2 9 2 2
left_child=1 3 5 13 12 14 9 -5 26 10 -4 24 -3 -1 -2 20 -9 18 -11 -17 -8 -10 -12 -13 -7 -15 -6 -14 -19
right_child=2 4 6 7 8 11 15 16 21 17 22 23 27 25 -16 19 -18 28 -20 -21 -22 -23 -24 -25 -26 -27 -28 -29 -30
leaf_value=-1.5024784194098579 0.21394462428449193 -0.1347598879555448 0.67368530323655584 -0.34458322294559646 -0.028992000531279302 0.3006323196485613 1.1363838325589171 -0.26923429026316503 0.065001125524238673 0.59712706531386783 0.74742124564708423 0.44402182906405213 -0.072550405145865651 -1.1120123303264653 0.30809674105195117 0.84289158210643045 -0.21394172485053523 0.58192244507372382 0.24698647330789006 1.058289356129144 0.95936013865781011 0.1325966841145941 0.89541757105134467 0.57015241753147217 0.43724891065188398 -0.91216318689543641 0.033093421149895656 0.071049757617892645 0.73671712580849147
leaf_weight=27 1413 3031 381 3657 971 143 206 2092 970 83 157 194 2670 109 1004 269 3794 148 51 93 197 1684 362 618 872 116 1307 99 170
leaf_count=27 1413 3031 381 3657 971 143 206 2092 970 83 157 194 2670 109 1004 269 3794 148 51 93 197 1684 362 618 872 116 1307 99 170
internal_value=0 -0.155616 0.502174 -0.296341 -0.0271776 0.347408 0.812439 -0.276126 0.0615294 0.718702 0.775734 0.472231 -0.102609 -1.06185 0.253055 0.978102 -0.233594 0.605142 0.463865 0.898229 1.04985 0.108636 0.850648 0.540018 0.418001 -1.00898 0.00664745 -0.0674163 0.664674
internal_weight=0 20527 6361 9795 10732 4244 2117 9543 4932 1352 900 1827 5800 252 2417 765 5886 452 134 362 403 2654 519 812 1015 225 2278 2769 318
internal_count=26888 20527 6361 9795 10732 4244 2117 9543 4932 1352 900 1827 5800 252 2417 765 5886 452 134 362 403 2654 519 812 1015 225 2278 2769 318
cat_boundaries=0 1 2 4
cat_threshold=4 482 2147483904 277414569
is_linear=0
shrinkage=0.2


Tree=2
num_leaves=30
num_cat=2
split_feature=7 7 7 7 7 7 7 7 7 9 7 7 0 9 7 7 9 8 7 9 10 10 7 10 0 10 7 8 7
split_gain=33682.5 6842.34 3964.72 2557.42 1084.2 711.493 690.844 332.442 201.799 156.936 150.953 122.905 109.159 97.2337 96.8868 91.8345 59.3241 56.72 54.8785 53.4592 68.7831 49.942 49.7116 49.2665 48.5651 71.2821 48.2252 47.2632 40.8889
threshold=2.5240000000000005 0.47550000000000003 10.502500000000003 1.0000000180025095e-35 1.2095000000000002 5.8100000000000014 0.18850000000000003 19.250000000000004 0.78500000000000025 0.098600167417659201 4.2150000000000016 0.090000000000000024 371.84950000000009 0.11308667910623972 0.3075 1.7395000000000003 0.096180688721151444 0 13.311500000000002 0.015524083468953039 379.58797662455294 327.92156862745111 7.0100000000000007 370.7611165206103 25.984500000000004 328.06818181818193 23.020000000000003 1 -0.17549999999999996
decision_type=2 2 2 2 2 2 2 2 2 2 2 2 2 2 2 2 2 1 2 2 2 2 2 2 2 2 2 1 2
left_child=1 3 5 12 8 10 11 9 21 18 19 -5 28 22 -8 -6 26 -10 -4 -2 -21 -3 -7 -17 25 -11 -9 -23 -1
right_child=2 4 7 6 15 13 14 16 17 24 -12 -13 -14 -15 -16 23 -18 -19 -20 20 -22 27 -24 -25 -26 -27 -28 -29 -30
leaf_value=-0.898046389059587 0.35190299378898671 -0.11308015320712604 0.62144799573241549 -0.28676864171762712 0.067236864008111255 0.39631569313079806 -0.18535176430531619 0.80495582030465218 -0.044000163992992308 0.51189056871358507 0.32968955338215106 -0.22729077033036399 -1.2860560121990385 0.21942628166327874 -0.13292498327121482 0.10562470302408189 0.767296693255338 0.015682243373930631 0.74151143482444004 0.18601946713135459 0.27407583115159295 -0.037654802794533926 0.48047878638292563 0.17599353676570573 0.5912438490791313 0.17219414258825369 1.0093281733855772 -0.097287962748337661 -0.72956591361810352
leaf_weight=110 127 943 265 2629 1715 412 2548 96 907 167 871 2948 21 75 3157 1019 419 2076 358 1010 547 1580 881 653 282 29 89 833 121
leaf_count=110 127 943 265 2629 1715 412 2548 96 907 167 871 2948 21 75 3157 1019 419 2076 358 1010 547 1580 881 653 282 29 89 833 121
internal_value=0 -0.115157 0.435083 -0.219348 0.00840141 0.324418 -0.205273 0.689712 -0.0404093 0.624301 0.262094 -0.255329 -0.849483 0.440819 -0.15634 0.0997539 0.808946 -0.0025595 0.690441 0.227132 0.216955 -0.0740523 0.453661 0.133107 0.538096 0.461629 0.903275 -0.0588002 -0.809795
internal_weight=0 21260 5628 11534 9726 3923 11282 1705 6339 1101 2555 5577 252 1368 5705 3387 604 2983 623 1684 1557 3356 1293 1672 478 196 185 2413 231
internal_count=26888 21260 5628 11534 9726 3923 11282 1705 6339 1101 2555 5577 252 1368 5705 3387 604 2983 623 1684 1557 3356 1293 1672 478 196 185 2413 231
cat_boundaries=0 1 2
cat_threshold=226 1309
is_linear=0
shrinkage=0.2


Tree=3
num_leaves=30
num_cat=2
split_feature=7 7 7 7 7 7 7 7 7 9 7 11 10 7 9 10 10 0 10 10 7 1 1 0 0 10 10 9 10
split_gain=21577.6 3547.16 3501.54 1549.1 606.341 514.536 440.171 292.829 124.811 98.963 95.9681 79.3763 78.8441 60.0433 59.9282 56.6179 54.9908 49.9371 49.7628 48.3031 47.914 45.5395 45.3852 47.7389 42.4439 42.4117 42.2345 41.8755 40.6779
threshold=1.8985000000000001 7.4000000000000012 0.36950000000000005 1.0000000180025095e-35 0.80000000000000049 13.311500000000002 3.600000000000001 0.12000000000000006 22.050000000000004 0.099813239261257583 1.3170000000000004 -41.340000000000003 368.22575723327316 0.5465000000000001 0.11097288703240661 261.33967741935493 379.04877344877355 15.794500000000001 270.16021838975581 377.35381290521781 6.0070000000000023 0 1 115.23750000000001 26.827500000000004 302.83928571428584 323.0125000000001 0.072059526186483966 362.83333333333348
decision_type=2 2 2 2 2 2 2 2 2 2 2 2 2 2 2 2 2 2 2 2 2 1 1 2 2 2 2 2 2
left_child=2 6 3 11 13 12 16 -5 9 22 19 -1 14 -4 -3 -8 -2 -16 -9 -6 -17 -14 23 -7 25 -11 -12 -22 -10
right_child=1 5 4 7 10 8 15 18 28 24 26 -13 21 -15 17 20 -18 -19 -20 -21 27 -23 -24 -25 -26 -27 -28 -29 -30
leaf_value=-1.0036159992218019 0.11862261529322378 0.38753243207676968 -0.089643274670804254 -0.22165675824184641 -0.017993001107040836 0.58180062389373777 0.15825678856827594 -0.21328051426583106 0.64970394068103632 0.44280476442405159 0.018885095912326805 -0.64070297368367513 0.55503733217023143 -0.04801245652404721 0.051896504948778857 0.26194263271212437 0.18055923174326166 0.35392093495961202 -0.14428454152896888 0.034608918426142554 0.50970257216808845 0.41739127094592532 0.62392466328354601 0.26590547561645511 0.51274941714656397 0.18884995644156999 0.084299872647451576 0.31638771925423598 0.8258957051942426
leaf_weight=27 1556 761 2619 3657 1498 50 164 453 339 91 562 225 172 2943 41 1269 908 47 5433 1308 51 218 436 31 233 37 1327 370 62
leaf_count=27 1556 761 2619 3657 1498 50 164 453 339 91 562 225 172 2943 41 1269 908 47 5433 1308 51 218 436 31 233 37 1327 370 62
internal_value=0 0.306853 -0.104611 -0.190135 -0.0229387 0.495514 0.196837 -0.17721 0.584498 0.542275 0.0299881 -0.679587 0.403658 -0.0676153 0.369463 0.270452 0.141447 0.213205 -0.149595 0.00652707 0.281339 0.478097 0.598383 0.460902 0.46192 0.369396 0.0648382 0.339806 0.676946
internal_weight=0 6836 20052 9795 10257 2518 4318 9543 1279 878 4695 252 1239 5562 849 1854 2464 88 5886 2806 1690 390 517 81 361 128 1889 421 401
internal_count=26888 6836 20052 9795 10257 2518 4318 9543 1279 878 4695 252 1239 5562 849 1854 2464 88 5886 2806 1690 390 517 81 361 128 1889 421 401
cat_boundaries=0 1 2
cat_threshold=4 1
is_linear=0
shrinkage=0.2


Tree=4
num_leaves=30
num_cat=7
split_feature=7 7 7 7 7 7 7 7 7 9 8 3 7 0 10 9 10 4 7 7 7 9 4 8 3 11 1 11 10
split_gain=13914.6 2795.97 1651.62 1014.85 549.411 270.268 234.672 144.403 86.7156 79.0618 76.2133 72.5683 63.6579 79.6248 63.5529 62.9566 60.7036 60.5824 48.0075 45.7526 43.9241 43.036 40.9224 39.2946 38.4118 38.3555 42.3044 41.1309 39.2191
threshold=2.5240000000000005 0.41000000000000009 10.416000000000002 1.0000000180025095e-35 1.0900000000000003 4.5035000000000016 0.17050000000000004 19.250000000000004 0.71050000000000013 0.098600167417659201 0 1 -0.17549999999999996 281.5660000000002 386.79977876106199 0.1038698474727484 377.35381290521781 2 0.060000000000000032 6.205000000000001 1.4030000000000002 0.098600167417659201 3 4 5 -45.091999999999999 6 3.6219999999999994 283.3340579710146
decision_type=2 2 2 2 2 2 2 2 2 2 1 9 2 2 2 2 2 9 2 2 2 2 9 1 9 2 1 2 2
left_child=1 3 5 12 8 21 18 9 22 -4 11 -6 13 -1 15 19 -8 20 -5 -7 -12 -2 -3 -10 -17 -9 -27 -28 -29
right_child=2 4 7 6 10 14 16 25 23 -11 17 -13 -14 -15 -16 24 -18 -19 -20 -21 -22 -23 -24 -25 -26 26 27 28 -30
leaf_value=-0.57492934521113603 0.16973766088869349 -0.029314622260298347 0.44624592863683088 -0.20562025130633754 0.15549345209839799 0.21217001363323384 -0.12987042711634311 0.76864510489006843 -0.047976482248269892 0.33960823456328892 0.058135915795052111 -0.0048137594579036377 -0.44234741592407228 -1.0096887826919556 0.32376321224015747 0.066026159466634843 -0.087935615834033587 0.042331018615450022 -0.15865242928094203 0.29009829046524599 0.12857808145363758 0.099257291875293724 -0.075171104678413536 0.001889947720696966 0.22094859795929878 0.55747968499123868 0.36868548856289163 0.41411250957082646 0.64102703124757809
leaf_weight=107 1405 1240 638 1146 116 502 2826 24 896 493 580 1091 125 20 454 145 2700 1481 3621 754 909 460 2306 2096 173 331 127 59 63
leaf_count=107 1405 1240 638 1146 116 502 2826 24 896 493 580 1091 125 20 454 145 2700 1481 3621 754 909 460 2306 2096 173 331 127 59 63
internal_value=0 -0.0740258 0.279635 -0.147138 -0.00207391 0.207305 -0.137429 0.441928 -0.0382726 0.399763 0.0545856 0.0117438 -0.543669 -0.643395 0.25784 0.238825 -0.109381 0.0717154 -0.169944 0.258952 0.100465 0.152354 -0.0594302 -0.0131973 0.159332 0.520884 0.510631 0.448355 0.53129
internal_weight=0 21260 5628 10545 10715 3893 10293 1735 6538 1131 4177 1207 252 127 2028 1574 5526 2970 4767 1256 1489 1865 3546 2992 318 604 580 249 122
internal_count=26888 21260 5628 10545 10715 3893 10293 1735 6538 1131 4177 1207 252 127 2028 1574 5526 2970 4767 1256 1489 1865 3546 2992 318 604 580 249 122
cat_boundaries=0 1 2 4 6 7 8 9
cat_threshold=706 1312 805339220 1108347928 1946157172 169995280 226 530 4
is_linear=0
shrinkage=0.2


Tree=5
num_leaves=30
num_cat=9
split_feature=7 7 7 7 7 7 7 7 8 9 10 8 4 3 7 6 10 10 10 8 3 9 10 10 10 7 1 9 8
split_gain=8934.96 1597.16 1310.64 620.569 335.414 187.553 148.385 103.31 67.6811 58.279 55.0252 54.6221 51.1902 47.1797 43.2935 41.5463 41.2259 41.0824 39.4144 35.8923 40.2476 34.5979 32.9614 32.7398 30.0326 28.8629 28.6352 26.7947 26.4372
threshold=2.1375000000000006 0.35800000000000004 8.8100000000000023 1.0000000180025095e-35 0.90450000000000019 4.2150000000000016 15.015000000000002 0.12000000000000006 0 0.10028388038330587 315.84810126582289 1 2 3 25.260000000000002 4 283.3340579710146 344.73065442020669 359.4644825018616 5 6 0.096181613431161092 502.80200660483246 325.21942689530692 487.53147408911121 24.950000000000003 7 0.1075130061694233 8
decision_type=2 2 2 2 2 2 2 2 1 2 2 1 9 9 2 1 2 2 2 1 9 2 2 2 2 2 1 2 1
left_child=1 3 5 15 8 11 18 -5 13 25 -10 -2 22 -3 -11 -1 -7 -13 27 -14 -21 -19 -6 -9 -12 26 -8 -4 -25
right_child=2 4 6 7 12 16 9 23 10 14 24 17 19 -15 -16 -17 -18 21 -20 20 -22 -23 -24 28 -26 -27 -28 -29 -30
leaf_value=-0.4079857248107242 0.019983063018278638 0.034514627577253175 0.27068426630883619 -0.14265123869722574 0.052526792413079927 0.12951893048355576 0.30729232974523724 -0.12699652101193426 -0.065038778091285485 0.30565500330095841 -0.021277471869644279 0.085663631202714807 0.030246006544505905 -0.084656003113665446 0.45112157919222401 -0.67963821697235116 0.20611184442365493 0.16321320090254632 0.33626237885343702 0.090893636904065572 -0.029521977441490755 0.086723945469794048 0.19112257223783269 -0.11906044411005123 0.059715411703975707 0.5299572975090705 0.43473112768094452 0.15368365398297709 -0.079698451444815077
leaf_weight=227 280 144 602 3657 1470 347 86 1278 1286 371 3581 905 1858 1629 105 25 1480 862 371 116 949 326 72 1052 193 100 392 90 3034
leaf_count=227 280 144 602 3657 1470 347 86 1278 1286 371 3581 905 1858 1629 105 25 1480 862 371 116 949 326 72 1052 193 100 392 90 3034
internal_value=0 -0.0638644 0.208075 -0.125377 -0.0133767 0.143398 0.336391 -0.11673 -0.041233 0.389567 -0.0292524 0.106314 0.0292533 -0.0748379 0.337743 -0.434935 0.191565 0.117207 0.283666 0.0135154 -0.0156828 0.142224 0.058618 -0.0990578 -0.0171355 0.432245 0.411803 0.255467 -0.0903192
internal_weight=0 20571 6317 9273 11298 4200 2117 9021 6833 1054 5060 2373 4465 1773 476 252 1827 2093 1063 2923 1065 1188 1542 5364 3774 578 478 692 4086
internal_count=26888 20571 6317 9273 11298 4200 2117 9021 6833 1054 5060 2373 4465 1773 476 252 1827 2093 1063 2923 1065 1188 1542 5364 3774 578 478 692 4086
cat_boundaries=0 1 2 4 5 6 7 8 9 10
cat_threshold=194 192 806387828 33557584 288 2 1565 1320 1 194
is_linear=0
shrinkage=0.2


Tree=6
num_leaves=30
num_cat=10
split_feature=7 7 7 7 7 7 7 8 3 8 0 4 8 3 10 7 7 11 8 3 3 5 9 10 0 11 10 10 10
split_gain=5775.59 1053.24 872.558 372.236 200.361 153.326 122.546 74.4047 71.8979 63.0836 60.0837 58.4498 52.8466 47.5886 42.6667 41.8171 40.5662 57.5342 40.4369 41.527 40.0452 35.7258 36.6489 35.4379 35.4089 58.4666 34.3292 34.3254 33.7576
threshold=1.7395000000000003 7.0100000000000007 0.27350000000000008 1.0000000180025095e-35 0.71050000000000013 13.311500000000002 3.0000000000000009 0 1 2 24.9145 3 4 5 294.16648822269832 0.060000000000000032 -0.17549999999999996 -35.927499999999903 6 7 8 9 0.10782917743024585 340.55416666666673 224.35949999999997 -10.257000000000012 325.21942689530692 292.76050003485233 449.65515873015875
decision_type=2 2 2 2 2 2 2 1 9 1 2 9 1 9 2 2 2 2 1 9 9 9 2 2 2 2 2 2 2
left_child=2 6 3 16 18 9 -2 10 -9 27 14 -6 21 -11 -7 -5 17 -1 -4 -20 23 22 -8 -14 25 -10 -23 -3 -17
right_child=1 5 4 15 11 7 12 8 24 13 -12 -13 20 -15 -16 28 -18 -19 19 -21 -22 26 -24 -25 -26 -27 -28 -29 -30
leaf_value=-0.7389215040206909 0.062513573825376964 0.23381831919554102 -0.034990450118345305 -0.1359659535794098 -0.027287104564739446 0.28909753708446279 0.12638912665617899 0.12634119236560054 0.020697177667170764 0.14374476668868452 0.38127685179718751 0.018395027476957919 0.0021454532060168475 0.24130451436337289 -0.00037986865410437955 -0.101078713026343 -0.26706505331993102 -0.36935896299709786 -0.023072177503478813 -0.086500477812190169 0.18519972044890537 0.14298306347914791 -0.029770482920888647 0.0970251245928897 0.4562564042269015 0.3083552506310463 0.22291300849795595 0.39295755096353019 -0.062280893067540102
leaf_weight=20 2352 93 4215 1146 1554 94 585 228 32 727 606 3943 253 413 26 5248 125 107 596 1552 123 447 67 417 51 242 414 130 1082
leaf_count=20 2352 93 4215 1146 1554 94 585 228 32 727 606 3943 253 413 26 5248 125 107 596 1552 123 447 67 417 51 242 414 130 1082
internal_value=0 0.151848 -0.0565775 -0.10887 -0.0225035 0.252719 0.0946346 0.302456 0.228459 0.206046 0.350841 0.00546453 0.127396 0.18088 0.226377 -0.100811 -0.347948 -0.427558 -0.0466651 -0.0690897 0.0817358 0.149798 0.108675 0.0602975 0.294189 0.27476 0.179333 0.312573 -0.0944469
internal_weight=0 7300 19588 7728 11860 2642 4658 1279 553 1363 726 5497 2306 1140 120 7476 252 127 6363 2148 793 1513 652 670 325 274 861 223 6330
internal_count=26888 7300 19588 7728 11860 2642 4658 1279 553 1363 726 5497 2306 1140 120 7476 252 127 6363 2148 793 1513 652 670 325 274 861 223 6330
cat_boundaries=0 1 2 3 5 6 7 8 9 10 11
cat_threshold=1589 2561 1024 4489473 277349025 1309 7683 1085 304 6675 8
is_linear=0
shrinkage=0.2


Tree=7
num_leaves=30
num_cat=11
split_feature=7 7 7 7 7 7 8 11 3 7 8 3 8 10 5 3 11 11 5 0 11 0 10 1 10 9 8 10 8
split_gain=3722.95 719.753 529.322 238.231 124.665 117.414 68.1799 62.9157 62.0654 54.848 52.3416 93.1597 50.3351 44.7775 42.3617 34.8554 34.7602 34.0275 50.5724 41.0255 33.8646 33.7827 33.7164 40.0487 31.8882 31.7268 31.7259 31.6398 28.4115
threshold=1.6075000000000002 6.205000000000001 0.27350000000000008 1.0000000180025095e-35 11.810000000000002 0.6150000000000001 0 -85.377499999999998 1 3.6950000000000007 2 3 4 327.92156862745111 5 6 -10.833999999999991 -3.0864999999999951 7 482.22850000000011 71.659000000000006 88.882000000000019 340.55416666666673 8 327.92156862745111 0.095248133968596757 9 379.96308016877646 10
decision_type=2 2 2 2 2 2 1 2 9 2 1 9 1 2 9 9 2 2 9 2 2 2 2 1 2 2 1 2 1
left_child=2 6 3 -1 12 24 8 -6 -2 14 20 22 -3 -7 -8 -10 21 -14 28 -20 -9 -13 -12 25 -4 -24 -15 -5 -19
right_child=1 4 5 27 7 13 9 10 15 -11 11 16 17 26 -16 -17 -18 18 19 -21 -22 -23 23 -25 -26 -27 -28 -29 -30
leaf_value=-0.27835863840928865 0.16401738068015559 0.24151184171264273 -0.064479499492544043 -0.094591454970861133 0.58931351184844971 -0.029768917135558983 0.085167094722718786 0.28444658670893735 -0.028288049545103056 0.1238620383836018 0.10106512067131648 -0.052785973250865939 0.18188897973010529 0.027114310613435069 0.023577429910578221 0.041961771864799692 0.29579953688260624 0.028940554915396412 0.21636407777731279 -0.048569046534024753 0.5496055662631989 0.2903284548358484 0.20823406887054446 0.28522635890915987 -0.030853541647437817 -0.12972548127174377 -0.0067424802023410557 -0.06850714217925033 0.12495803356211146
leaf_weight=252 117 247 1552 3480 20 1488 1648 525 436 1027 373 24 399 2223 648 769 365 311 232 26 20 22 25 100 4130 20 2193 3996 220
leaf_count=252 117 247 1552 3480 20 1488 1648 525 436 1027 373 24 399 2223 648 769 365 311 232 26 20 22 25 100 4130 20 2193 3996 220
internal_value=0 0.118889 -0.0465559 -0.0870962 0.19653 -0.019515 0.069931 0.236969 0.0307072 0.0851867 0.232188 0.193736 0.154429 0.000236522 0.0682583 0.01652 0.268616 0.13317 0.11022 0.182588 0.288877 0.111312 0.130362 0.214717 -0.0400382 0.0580298 0.010347 -0.0806491 0.0702962
internal_weight=0 7574 19314 7728 2929 11586 4645 1494 1322 3323 1474 929 1435 5904 2296 1205 411 1188 789 258 545 46 518 145 5682 45 4416 7476 531
internal_count=26888 7574 19314 7728 2929 11586 4645 1494 1322 3323 1474 929 1435 5904 2296 1205 411 1188 789 258 545 46 518 145 5682 45 4416 7476 531
cat_boundaries=0 1 2 3 4 5 6 7 8 9 10 11
cat_threshold=706 288 1060 2819 1024 17 4609 12 2 1037 71
is_linear=0
shrinkage=0.2


Tree=8
num_leaves=30
num_cat=10
split_feature=7 7 7 7 7 7 10 7 11 8 3 3 8 4 10 4 0 3 8 0 8 9 1 0 0 11 7 0 10
split_gain=2416.58 531.426 260.133 174.677 99.3575 63.3313 54.5883 51.5343 49.5169 58.6235 67.621 49.2106 46.5561 53.7357 45.5074 43.2281 39.6513 34.5007 52.887 33.8182 31.9488 31.729 32.4054 40.9356 53.1714 30.8285 30.2014 37.2599 28.3646
threshold=2.7000000000000011 0.47550000000000003 9.8050000000000033 0.059999999999999977 1.1290000000000002 0.17050000000000004 285.39323962516738 24.950000000000003 -85.377499999999998 0 1 2 3 4 333.99715623428864 5 528.3125 6 7 394.55800000000011 8 0.10028388038330587 9 115.23750000000001 158.76250000000002 -45.091999999999999 -0.17549999999999996 281.5660000000002 492.83547008547015
decision_type=2 2 2 2 2 2 2 2 2 1 9 9 1 9 2 9 2 9 1 2 1 2 1 2 2 2 2 2 2
left_child=1 3 11 26 15 -5 -6 8 -4 14 21 25 13 -13 19 -3 -14 -8 -19 -10 -7 22 23 -11 -25 -2 27 -1 -20
right_child=2 4 7 5 6 20 17 -9 9 10 -12 12 16 -15 -16 -17 -18 18 28 -21 -22 -23 -24 24 -26 -27 -28 -29 -30
leaf_value=-0.23953930473773277 0.33923322251348786 0.011337438017508628 0.44827236682921651 -0.072641851020041254 -0.048323795826853082 -0.02993813253177189 0.1012022225081291 0.27221173230222678 0.21242093145368199 0.16714110728856679 0.19881941058352637 -0.01969442732353973 0.098730510385404993 0.082799338064796765 0.33758296322849923 -0.025492570682906487 -0.058707479206901607 -0.012699944336762255 0.039494926625879355 -0.056349595598876479 -0.058620740579303804 0.04772725660711867 0.15932470468433924 -0.35532206699252128 0.10585646659135819 0.13874334682723286 -0.15519950557856044 -0.53694280408322814 0.18330922158867388
leaf_weight=107 33 1905 25 4735 354 3750 274 219 294 37 461 375 2099 438 126 3826 66 938 2688 20 2765 307 337 20 20 436 157 20 56
leaf_count=107 33 1905 25 4735 354 3750 274 219 294 37 461 375 2099 438 126 3826 66 938 2688 20 2765 307 337 20 20 436 157 20 56
internal_value=0 -0.0296635 0.120916 -0.0589505 0.00397815 -0.0550399 0.0269195 0.181064 0.168944 0.164639 0.136899 0.0883549 0.0779359 0.0358587 0.2308 -0.0132749 0.0934991 0.0336526 0.0282741 0.195302 -0.0422471 0.0951294 0.132578 0.0155183 -0.124733 0.149659 -0.213859 -0.286375 0.0422758
internal_weight=0 21575 5313 11534 10041 11250 4310 1866 1647 1622 1182 3447 2978 813 440 5731 2165 3956 3682 314 6515 721 414 77 40 469 284 127 2744
internal_count=26888 21575 5313 11534 10041 11250 4310 1866 1647 1622 1182 3447 2978 813 440 5731 2165 3956 3682 314 6515 721 414 77 40 469 284 127 2744
cat_boundaries=0 1 2 3 4 6 8 9 10 11 12
cat_threshold=1568 2947 1448 706 4194305 679477281 1544553588 2223188 1312 194 1581 1
is_linear=0
shrinkage=0.2


Tree=9
num_leaves=30
num_cat=8
split_feature=7 7 7 7 3 10 7 7 8 11 7 10 4 8 0 0 9 9 0 9 4 11 8 7 10 10 9 3 3
split_gain=1556.76 316.496 193.275 113.352 53.8791 50.3404 52.5304 48.305 45.6608 40.1692 39.503 36.5126 33.8197 32.3116 31.6181 42.5737 31.1364 38.1359 28.9476 53.9276 28.3476 28.3329 28.1185 26.7924 26.7974 26.7869 26.2123 25.7608 24.8805
threshold=2.4635000000000002 0.51050000000000006 8.8100000000000023 0.059999999999999977 0 285.82478070175443 1.1435000000000002 0.090000000000000024 1 -41.340000000000003 27.615000000000006 344.73065442020669 2 3 59.133500000000019 528.3125 0.10634941557837964 0.12726184952933914 57.320000000000007 0.10136223307055392 4 3.6219999999999994 5 20.180000000000003 283.3340579710146 368.22575723327316 0.1024140832017587 6 7
decision_type=2 2 2 2 9 2 2 2 1 2 2 2 9 1 2 2 2 2 2 2 9 2 1 2 2 2 2 9 9
left_child=1 3 11 -1 9 -3 20 -5 14 -4 16 13 -9 27 -6 21 18 -18 -10 23 -7 -16 -22 24 -20 -23 -21 -2 -24
right_child=2 5 4 7 8 6 -8 12 10 -11 -12 -13 -14 -15 15 -17 17 -19 19 26 22 25 28 -25 -26 -27 -28 -29 -30
leaf_value=-0.17108699932455046 0.071756490534376147 -0.049538885325519033 0.50193545141532503 -0.067277230687368642 0.13238345775171184 0.031265383059189335 0.026202970447022234 -0.018446222991473273 0.14967340179840208 0.21831715375803032 0.347193436048649 0.083819862195983044 -0.044739911437661727 0.064802328920927563 0.19654052278132944 -0.035691262142998829 -0.0043364656885387376 0.23962084963917732 -0.02296652803436304 -0.2564266346395016 0.00024761908963717033 0.25777804658963127 0.05353033587485552 0.1921709354672777 0.1054495661569616 0.46421896909795157 0.014947948051350458 -0.016459193847764314 -0.040487003600717615
leaf_weight=284 172 674 22 2597 216 702 3466 2931 538 217 27 1877 6191 1049 123 21 176 30 78 24 2793 65 115 114 390 41 35 478 1442
leaf_count=284 172 674 22 2597 216 702 3466 2931 538 217 27 1877 6191 1049 123 21 176 30 78 24 2793 65 115 114 390 41 35 478 1442
internal_value=0 -0.0248502 0.0929463 -0.0462376 0.140841 0.00307762 0.00724098 -0.043212 0.126982 0.234608 0.106845 0.0645926 -0.0363607 0.0433509 0.184471 0.236854 0.102931 0.0311913 0.115466 0.0867556 -0.00576817 0.261847 -0.0117894 0.105226 0.0840469 0.337628 -0.0954417 0.00761757 -0.0332456
internal_weight=0 21195 5693 12003 2117 9192 8518 11719 1878 239 1412 3576 9122 1699 466 250 1385 206 1179 641 5052 229 4350 582 468 106 59 650 1557
internal_count=26888 21195 5693 12003 2117 9192 8518 11719 1878 239 1412 3576 9122 1699 466 250 1385 206 1179 641 5052 229 4350 582 468 106 59 650 1557
cat_boundaries=0 1 2 4 5 7 8 9 10
cat_threshold=424 1056 939556980 169994308 498 1207960692 2220116 1325 2088 1312
is_linear=0
shrinkage=0.2


Tree=10
num_leaves=30
num_cat=10
split_feature=7 7 7 7 7 10 5 10 0 4 4 8 3 8 11 0 11 3 2 10 3 8 7 11 0 10 7 11 10
split_gain=1014.25 231.457 103.606 76.6459 52.6485 43.3148 42.4434 39.4917 37.4365 35.0898 34.8672 34.5984 37.1216 31.856 47.8448 42.3079 36.894 35.5914 36.599 31.4936 31.206 35.9551 30.9895 30.2427 29.7702 26.4935 26.4055 32.6819 25.9759
threshold=2.9545000000000003 0.39550000000000007 10.826000000000002 -0.17549999999999996 1.3170000000000004 396.57717157214648 0 573.33032128514071 584.78399999999988 1 2 3 4 5 -10.833999999999991 224.35949999999997 -13.474000000000006 6 7 205.39814814814818 8 9 5.3035000000000005 -35.927499999999903 24.9145 311.12600184956858 23.020000000000003 6.9940000000000078 366.32248201438824
decision_type=2 2 2 2 2 2 9 2 2 9 9 1 9 1 2 2 2 9 1 2 9 1 2 2 2 2 2 2 2
left_child=1 3 6 23 7 13 9 19 22 -2 -6 -5 -13 14 16 17 -4 -16 -19 -3 28 -22 25 -1 -15 -8 -26 -28 -11
right_child=2 4 5 11 10 -7 8 -9 -10 20 -12 12 -14 24 15 -17 -18 18 -20 -21 21 -23 -24 -25 26 -27 27 -29 -30
leaf_value=-0.42062583073973658 -0.023509250597407425 -0.095438161543598021 0.012051931528064113 -0.030037334810287166 0.047378253762383887 0.34225946477481295 0.030298309002195913 0.11402149039786309 -0.089313795496808734 0.051480739020731692 0.006327029571416321 0.0041222998870035568 -0.062426557584417619 0.069215776572499499 -0.011649333289824426 0.31445762207731609 -0.30071808511221954 0.1977333536933594 -0.013087743075321552 -0.0081490127333350183 -0.012913846560374141 0.060876060842988515 0.12800602289942606 -0.15268713260574318 0.13208987447213752 0.099342017953072598 0.16631618042936527 0.34420335487885911 0.14290915066817148
leaf_weight=20 290 169 48 6717 1261 35 399 104 47 259 2404 384 3040 226 126 32 22 116 46 7622 429 678 581 107 764 502 166 55 239
leaf_count=20 290 169 48 6717 1261 35 399 104 47 259 2404 384 3040 226 126 32 22 116 46 7622 429 678 581 107 764 502 166 55 239
internal_value=0 -0.0186219 0.0807582 -0.0404741 0.000787943 0.12216 0.0609761 -0.00840818 0.0858561 0.040236 0.0205979 -0.0385404 -0.0549729 0.117349 0.0619402 0.0962918 -0.0862472 0.0720511 0.129855 -0.0100425 0.0518281 0.0324204 0.0919907 -0.194882 0.133578 0.0687666 0.149702 0.210587 0.0934819
internal_weight=0 21828 5060 10268 11560 1636 3424 7895 1529 1895 3665 10141 3424 1601 390 320 70 288 162 7791 1605 1107 1482 127 1211 901 985 221 498
internal_count=26888 21828 5060 10268 11560 1636 3424 7895 1529 1895 3665 10141 3424 1601 390 320 70 288 162 7791 1605 1107 1482 127 1211 901 985 221 498
cat_boundaries=0 1 3 5 6 7 8 9 10 11 12
cat_threshold=12 4194304 570950296 806355028 34638928 1085 1316 66 4611 1 1432 195
is_linear=0
shrinkage=0.2


Tree=11
num_leaves=30
num_cat=12
split_feature=7 7 7 3 8 0 0 4 7 8 3 10 11 5 8 3 3 7 0 10 11 9 10 4 0 8 1 9 11
split_gain=653.175 153.757 107.186 47.3316 46.0518 46.0955 67.3514 43.2044 42.0229 39.5277 41.5903 34.6229 32.7358 31.4313 30.3819 36.0603 29.3544 35.2967 36.1221 34.6439 28.5134 28.2279 31.6365 28.1744 27.3376 24.1786 32.4566 23.5343 27.0112
threshold=1.542 5.8100000000000014 0.20000000000000009 0 1 528.3125 1142.0485000000001 2 -0.17549999999999996 3 4 444.08509454104183 -23.698000000000008 5 6 7 8 17.810000000000006 204.10750000000007 386.80039062500015 -4.3409999999999931 0.1107616266007639 309.57818353569519 9 47.420999999999999 10 11 0.099244103865119379 16.854000000000003
decision_type=2 2 2 9 1 2 2 9 2 1 9 2 2 9 1 9 9 2 2 2 2 2 2 9 2 1 1 2 2
left_child=2 11 8 12 20 16 -7 -4 -1 10 -9 14 -3 23 -2 -16 17 19 -19 25 -5 -18 -23 -11 -22 -6 -27 -14 -29
right_child=1 3 7 4 5 6 -8 9 -10 13 -12 -13 27 -15 15 -17 21 18 -20 -21 24 22 -24 -25 -26 26 -28 28 -30
leaf_value=-0.15590576107401077 0.035604085562066672 0.31001002977849268 -0.049562287730910502 0.062631774185427341 0.029555373157596068 -0.26160807318803742 0.15489042669534683 0.04366479140211682 -0.039622798565154473 0.051824804845981204 -0.030262772411383261 0.097415939537544793 0.1775235958154435 -0.03459421946462414 0.072215247328400498 -0.0088788376598742304 0.045821276000664712 0.11552272373751092 0.33254376211587122 0.17605177406297498 0.10260641815577401 0.11469900929010833 -0.14416679652218803 0.0021564039942444982 0.21508276498420759 0.14095143660028675 0.02927430914251844 0.015447988004788108 0.27189757525920871
leaf_weight=127 2684 49 998 166 688 41 25 327 5874 479 3369 258 184 868 244 1598 489 314 34 102 160 26 69 6989 188 245 181 92 20
leaf_count=127 2684 49 998 166 688 41 25 327 5874 479 3369 258 184 868 244 1598 489 314 34 102 160 26 69 6989 188 245 181 92 20
internal_value=0 0.0485766 -0.0199666 0.0834853 0.0737167 0.0605157 -0.103843 -0.00978054 -0.0420837 -0.00643428 -0.0236219 0.0261531 0.154124 0.00120552 0.0220908 0.0021952 0.0658476 0.0800504 0.136726 0.064489 0.128339 0.0259954 -0.0733193 0.00540719 0.16337 0.0542741 0.0913572 0.133525 0.0612426
internal_weight=0 7857 19031 3073 2728 2214 66 13030 6001 12032 3696 4784 345 8336 4526 1842 2148 1564 348 1216 514 584 95 7468 348 1114 426 296 112
internal_count=26888 7857 19031 3073 2728 2214 66 13030 6001 12032 3696 4784 345 8336 4526 1842 2148 1564 348 1216 514 584 95 7468 348 1114 426 296 112
cat_boundaries=0 1 2 4 5 6 7 8 9 10 12 13 14
cat_threshold=424 1024 4588801 8389248 226 1312 17 1069 1320 3089 268435524 136339460 199 4
is_linear=0
shrinkage=0.2


Tree=12
num_leaves=30
num_cat=13
split_feature=7 7 7 7 8 9 3 10 8 3 8 5 3 11 9 4 0 1 0 6 5 0 7 0 0 11 0 2 8
split_gain=430.011 126.901 46.366 41.692 31.3683 30.7658 30.3154 28.5361 31.2485 27.8898 36.0157 33.3153 27.7043 25.9805 23.9373 22.742 20.846 20.4866 24.796 20.0373 19.8538 32.8751 30.7377 23.9781 20.0578 23.8367 21.4071 19.4078 26.945
threshold=3.600000000000001 0.7220000000000002 0.060000000000000032 17.810000000000006 0 0.11095721760541705 1 339.42172308204675 2 3 4 5 6 40.744 0.094470783512668174 7 90.667500000000004 8 64.885000000000005 9 10 584.78399999999988 7.2725000000000009 294.19650000000007 13.993500000000003 -10.257000000000012 94.364000000000019 11 12
decision_type=2 2 2 2 1 2 9 2 1 9 1 9 9 2 2 9 2 1 2 1 9 2 2 2 2 2 2 1 1
left_child=1 2 14 7 19 9 -5 8 -2 17 -11 15 -6 -10 -1 -12 -16 18 -3 -4 22 24 -9 -24 -22 26 -26 28 -8
right_child=3 5 4 6 12 -7 27 20 13 10 11 -13 -14 -15 16 -17 -18 -19 -20 -21 21 -23 23 -25 25 -27 -28 -29 -30
leaf_value=-0.049228678641279645 0.046755675191967855 0.06398246669537061 -0.0079912888165771644 0.012648388737313498 0.020483247852688471 -0.044268512919395708 0.035027940093907493 0.01623181409200955 -0.00032268342158580521 -0.016388735678246745 0.0021980948252804974 -0.01455587430719322 -0.034604559788376343 -0.19870280365326576 -0.093661920034459667 0.034786276064011426 -0.29261458230943516 0.036204272901265544 0.25808821298182011 -0.049890997583711752 -0.067570842089860347 -0.091186116319714183 0.0693876105668845 0.2036241253048687 0.21941430673003195 0.14605110536594498 -0.012824381791151963 0.032066395765215881 0.16002570513663905
leaf_weight=1292 1488 77 7531 143 392 405 109 522 464 1703 1226 1057 4849 28 77 2911 29 441 40 486 23 33 544 59 20 383 77 82 397
leaf_count=1292 1488 77 7531 143 392 405 109 522 464 1703 1226 1057 4849 28 77 2911 29 441 40 486 23 33 544 59 20 383 77 82 397
internal_value=0 -0.0110868 -0.0220824 0.0574563 -0.0184295 0.00941604 0.101044 0.0487051 0.0324882 0.0123325 0.00879145 0.0170631 -0.0304531 -0.0113813 -0.0567248 0.0251574 -0.148092 0.0549582 0.130343 -0.0105182 0.0680366 0.100321 0.0513072 0.0825219 0.114879 0.123622 0.0350599 0.120281 0.136954
internal_weight=0 22516 14656 4372 13258 7860 731 3641 1980 7455 6897 5194 5241 492 1398 4137 106 558 117 8017 1661 536 1125 603 503 480 97 588 506
internal_count=26888 22516 14656 4372 13258 7860 731 3641 1980 7455 6897 5194 5241 492 1398 4137 106 558 117 8017 1661 536 1125 603 503 480 97 588 506
cat_boundaries=0 1 2 3 4 5 6 7 9 10 11 12 13 14
cat_threshold=1325 1794 1551 1312 194 17 288 1280 276832375 1 2 8 1 65
is_linear=0
shrinkage=0.2


Tree=13
num_leaves=30
num_cat=9
split_feature=7 7 7 11 10 4 4 3 6 10 3 8 10 7 11 11 0 11 11 11 0 0 1 3 8 9 10 7 0
split_gain=284.266 67.9739 49.0995 32.1082 28.8865 28.578 27.4536 26.3341 40.8959 26.0012 24.827 35.2736 38.3973 33.3295 29.126 30.9824 28.6615 27.1345 29.9638 29.433 25.7971 24.7192 24.4687 25.3941 24.4563 23.6392 23.6035 22.6394 22.6271
threshold=1.4335000000000002 6.205000000000001 0.23900000000000002 -85.377499999999998 327.92156862745111 0 1 2 3 420.42727272727279 4 5 285.83315098468285 24.950000000000003 -13.942500000000001 -9.8905000000000047 31.206500000000002 2.2225000000000006 31.867499999999996 -0.27149999999999985 109.56200000000003 528.3125 6 7 8 0.10447051655400705 573.33032128514071 1.0000000180025095e-35 69.212000000000003
decision_type=2 2 2 2 2 9 9 9 1 2 9 1 2 2 2 2 2 2 2 2 2 2 1 9 1 2 2 2 2
left_child=2 6 27 -3 -4 -5 -2 8 24 22 11 16 20 -14 -12 28 25 19 -19 -18 -13 -17 -9 -24 -8 -7 -6 -1 -16
right_child=1 3 4 5 26 10 7 9 -10 -11 14 12 13 -15 15 21 17 18 -20 -21 -22 -23 23 -25 -26 -27 -28 -29 -30
leaf_value=-0.085722126381768349 -0.049090866758312035 0.24068049965678037 -0.022144541531197565 0.0059625185055040717 -0.0011698154139721355 0.13612800189917248 -0.069808105102626333 0.034394347333803962 -0.20325738665026927 0.074546848969509846 0.12627407605390226 0.072120159835683886 0.12513078965901123 0.34915589958961524 0.0067711859941482549 0.038289352485232735 0.013605800335981737 -0.12305211156022317 0.11746526681459868 0.24778170961141588 -0.10211348509466328 -0.16773768489559493 0.071867516589112321 -0.0034083271465149712 0.039002666438874956 -0.088428842682730074 0.074537204500354295 -0.024658615523338513 -0.27693912477596949
leaf_weight=252 228 37 3123 450 8454 127 129 2288 48 385 126 418 518 28 22 792 152 102 26 25 37 24 189 1803 194 22 168 6698 23
leaf_count=252 228 37 3123 450 8454 127 129 2288 48 385 126 418 518 28 22 792 152 102 26 25 37 24 189 1803 194 22 168 6698 23
internal_value=0 0.0311288 -0.0135486 0.0555506 -0.00566409 0.0531821 0.01754 0.0206132 -0.030192 0.0247095 0.0616067 0.0785463 0.0998636 0.136619 0.0360977 0.0233204 0.0304057 -0.00404785 -0.074197 0.0466815 0.0579517 0.0322297 0.0202843 0.00407748 -0.005408 0.102972 0.000305339 -0.0268727 -0.138236
internal_weight=0 8193 18695 2929 11745 2892 5264 5036 371 4665 2442 1455 1001 546 987 861 454 305 128 177 455 816 4280 1992 323 149 8622 6950 45
internal_count=26888 8193 18695 2929 11745 2892 5264 5036 371 4665 2442 1455 1001 546 987 861 454 305 128 177 455 816 4280 1992 323 149 8622 6950 45
cat_boundaries=0 2 4 5 6 7 8 9 10 11
cat_threshold=4194304 168296601 1077936416 8389120 4608 2 57 197 4 288 104
is_linear=0
shrinkage=0.2


Tree=14
num_leaves=30
num_cat=12
split_feature=7 7 0 3 10 3 6 11 8 1 3 8 3 11 11 11 3 10 11 0 7 4 11 4 10 0 8 11 7
split_gain=187.937 50.0895 32.7407 32.5849 34.452 29.2163 35.9924 28.7594 27.9888 30.8628 27.6212 27.1505 29.4365 24.4546 32.3602 35.8238 25.9468 32.3527 26.101 26.3884 23.5136 22.7528 22.4923 21.6255 21.2068 20.6258 20.5306 26.7282 19.6828
threshold=2.9545000000000003 0.35800000000000004 1142.0485000000001 0 253.3333333333334 1 2 -49.014000000000046 3 4 5 6 7 -7.0729999999999977 -8.2664999999999953 -10.257000000000012 8 294.15815587425766 -0.47449999999999887 27.340000000000003 17.810000000000006 9 -24.185500000000005 10 449.36788773814095 757.79399999999998 11 -12.257999999999997 15.330000000000002
decision_type=2 2 2 9 2 9 1 2 1 1 9 1 9 2 2 2 9 2 2 2 2 9 2 9 2 2 1 2 2
left_child=1 2 21 7 -5 6 24 -2 20 10 22 -7 -13 14 15 26 17 -15 19 -18 25 -1 -10 -20 -3 -6 -11 -28 -25
right_child=3 5 -4 4 8 11 -8 -9 9 13 -12 12 -14 16 -16 -17 18 -19 23 -21 -22 -23 -24 28 -26 -27 27 -29 -30
leaf_value=0.005027904371348476 0.29936103119204444 -0.012870106511991847 -0.27476407909765838 -0.062631991585704747 0.044307768128009017 0.016042301910820591 -0.081338361041465163 0.074714042508506967 -0.15698563866317272 0.047956514339760059 -0.040401252955583423 -0.028131041164228467 0.011284634482254701 0.10622033118877723 -0.18013429469428957 0.18089756036913673 0.027496998134962064 -0.095214852154962365 -0.043218918462162435 0.1576819837949742 0.10457886177862873 -0.02274772517451655 0.065616353060388322 0.036336123820108854 0.036233407072543349 -0.16002069652080536 -0.018044773302972317 -0.19995687492191794 0.11627115215375727
leaf_weight=1390 24 3680 20 157 1655 5180 288 454 20 129 522 1459 1559 46 40 43 97 104 105 174 279 7863 197 633 389 20 168 40 153
leaf_count=1390 24 3680 20 157 1655 5180 288 454 20 129 522 1459 1559 46 40 43 97 104 105 174 279 7863 197 633 389 20 168 40 153
internal_value=0 -0.00799895 -0.0191469 0.0347803 0.0293736 0.000234806 -0.0129821 0.0842312 0.0327044 0.0183033 -0.0158414 0.00726616 -0.00780017 0.0329776 -0.00902528 0.00898619 0.0464236 -0.0313513 0.0562491 0.111084 0.0505634 -0.0185944 0.0431133 0.0402021 -0.00817577 0.041868 -0.0129491 -0.0505954 0.051244
internal_weight=0 21828 9273 5060 4582 12555 4357 478 4425 2471 739 8198 3018 1732 420 380 1312 150 1162 271 1954 9253 217 891 4069 1675 337 208 786
internal_count=26888 21828 9273 5060 4582 12555 4357 478 4425 2471 739 8198 3018 1732 420 380 1312 150 1162 271 1954 9253 217 891 4069 1675 337 208 786
cat_boundaries=0 1 2 3 4 5 6 7 8 9 11 13 14
cat_threshold=168 6662 2 1076 2 272 1325 1 4608 939589700 136438080 4194304 268435456 265
is_linear=0
shrinkage=0.2


Tree=15
num_leaves=30
num_cat=9
split_feature=7 7 10 3 6 3 8 0 11 0 11 11 8 3 4 10 7 9 8 0 0 0 0 11 11 0 7 9 4
split_gain=125.857 37.2477 28.3256 26.7488 37.7455 25.6182 26.6895 25.2739 55.4442 25.3574 25.1533 40.2779 21.3698 26.143 20.5987 31.6997 20.3642 20.5252 19.2271 17.9684 16.1689 44.3969 24.6797 17.5281 24.9604 18.4447 16.0948 16.0644 15.6298
threshold=1.0900000000000003 4.6830000000000007 285.80151515151522 0 1 2 3 33.280500000000011 4.437500000000008 17.226500000000005 -23.698000000000008 -9.8905000000000047 4 5 6 331.679874360893 27.615000000000006 0.015524083468953039 7 87.731500000000025 112.67400000000002 78.282000000000025 40.102000000000011 -11.536999999999997 -2.5280000000000036 88.882000000000019 0.079500000000000029 0.099813239261257583 8
decision_type=2 2 2 9 1 9 1 2 2 2 2 2 1 9 9 2 2 2 1 2 2 2 2 2 2 2 2 2 9
left_child=2 14 -1 4 -4 10 7 8 27 -10 -3 -12 -5 -14 15 19 17 -8 -16 -2 21 22 -9 -23 -25 -26 -6 -7 -19
right_child=1 5 3 12 26 6 16 20 9 -11 11 -13 13 -15 18 -17 -18 28 -20 -21 -22 23 -24 24 25 -27 -28 -29 -30
leaf_value=-0.039682629316917739 -0.12335911900736392 0.19225832533204196 -0.022848468306799537 0.00084359893503908401 -0.28957587608269286 0.10586036549192733 0.19580989529689152 0.16184460108096785 -0.036486799561459088 -0.32225986171720761 -0.11942562732431623 0.080277542354704079 0.0050771321571018132 -0.023175489020317335 0.011506772458233958 0.027070720340677173 0.19000802418360344 0.04389130811750086 -0.018988088191950688 -0.0018628160225723043 0.040697703120196292 0.32413730981849853 0.021933888413012029 0.026301946273694438 0.084720052713933208 0.30752994233653663 -0.10206910964046399 -0.011393575603632551 0.00094570792397320128
leaf_weight=1221 88 66 1041 8460 21 92 24 65 23 27 45 395 1880 4317 1843 2605 26 417 1484 109 382 31 225 39 23 42 143 95 1659
leaf_count=1221 88 66 1041 8460 21 92 24 65 23 27 45 395 1880 4317 1843 2605 26 417 1484 109 382 31 225 39 23 42 143 95 1659
internal_value=0 0.0180985 -0.0103292 -0.0080697 -0.0365944 0.0340155 0.0270492 0.053185 -0.00372763 -0.190804 0.0756289 0.0598534 -0.00569573 -0.01461 0.00855187 0.0211453 0.014026 0.011914 -0.00211152 -0.0561353 0.0705581 0.0973974 0.0532932 0.19214 0.152794 0.22869 -0.126079 0.0462929 0.00978804
internal_weight=0 9805 17083 15862 1205 3676 3170 1044 237 50 506 440 14657 6197 6129 2802 2126 2100 3327 197 807 425 290 135 104 65 164 187 2076
internal_count=26888 9805 17083 15862 1205 3676 3170 1044 237 50 506 440 14657 6197 6129 2802 2126 2100 3327 197 807 425 290 135 104 65 164 187 2076
cat_boundaries=0 1 2 3 4 5 6 8 9 11
cat_threshold=4736 2 1448 1072 1581 1332 337281140 1242590282 1035 2147483665 8389632
is_linear=0
shrinkage=0.2


Tree=16
num_leaves=30
num_cat=11
split_feature=7 7 10 10 10 7 8 3 11 0 3 7 3 4 8 3 7 4 8 9 0 8 11 9 4 7 11 0 0
split_gain=82.7125 31.2828 25.2497 22.2384 22.0104 20.3958 20.2163 29.2613 25.8268 33.5857 23.5366 20.6427 19.7881 19.7464 18.2621 23.4411 21.5084 18.1253 18.117 22.6835 17.3737 14.3942 14.1182 21.0692 18.7783 18.4216 14.6824 13.982 24.8248
threshold=0.87350000000000017 11.070000000000002 487.53147408911121 396.57717157214648 247.43378073770495 0.090000000000000024 0 1 -3.2659999999999978 424.02850000000007 2 2.3550000000000004 3 4 5 6 23.550000000000004 7 8 0.059488177055471873 394.55800000000011 9 4.2430000000000012 0.084470488341338079 10 25.609999999999999 0.86150000000000049 59.133500000000019 195.32900000000004
decision_type=2 2 2 2 2 2 1 9 2 2 9 2 9 9 1 9 2 9 1 2 2 1 2 2 9 2 2 2 2
left_child=2 4 5 14 -2 -1 8 18 9 -6 11 -10 -7 -14 22 -16 -17 -9 19 -8 -12 -15 23 -3 -24 26 27 -25 -29
right_child=1 3 -4 -5 6 12 7 17 10 -11 20 -13 13 21 15 16 -18 -19 -20 -21 -22 -23 24 25 -26 -27 -28 28 -30
leaf_value=-0.027018305321148229 -0.043205491372401983 0.15270270024027144 0.023607501103516438 0.2042263822106179 -0.012628357785204989 0.018861201959137194 0.23206322026039872 -0.010778983594119076 0.044318750301209547 0.14619679740464658 0.03134116402052705 0.13347515985779054 -0.031033147485761338 -0.020320787296159881 0.015261732604830786 0.063477059410170886 0.16723583131192291 0.011451123066886532 0.012379231660816944 0.061550900973573644 -0.078052143202941932 -0.0024067117354663577 0.098699889756090037 0.046532149937928924 -0.0077052520864920038 -0.20058291486423949 -0.097213869983596463 -0.11317541865607748 0.076531857971188638
leaf_weight=2666 313 28 885 32 811 1019 35 2973 242 57 1210 182 1551 2365 389 433 98 2877 377 288 61 7374 122 149 138 23 70 77 43
leaf_count=2666 313 28 885 32 811 1019 35 2973 242 57 1210 182 1551 2365 389 433 98 2877 377 288 61 7374 122 149 138 23 70 77 43
internal_value=0 0.013334 -0.00921852 0.0391725 0.00894259 -0.0111585 0.0107337 0.00480874 0.0257563 -0.0021986 0.0402237 0.0806858 -0.00772342 -0.0101306 0.0358083 0.0537248 0.0810992 0.000154554 0.0431544 0.0776242 0.0258873 -0.00677331 0.00947721 -0.0144437 0.0457231 -0.0273722 -0.0156204 0.00561209 -0.045197
internal_weight=0 11028 15860 1602 9426 14975 9113 6550 2563 868 1695 424 12309 11290 1570 920 531 5850 700 323 1271 9739 650 390 260 362 339 269 120
internal_count=26888 11028 15860 1602 9426 14975 9113 6550 2563 868 1695 424 12309 11290 1570 920 531 5850 700 323 1271 9739 650 390 260 362 339 269 120
cat_boundaries=0 1 2 3 4 6 7 8 10 11 12 14
cat_threshold=1025 1320 560 1440 272893185 276857504 330 5650 4194560 875045565 6 194 0 134220832
is_linear=0
shrinkage=0.2


Tree=17
num_leaves=30
num_cat=11
split_feature=7 10 10 0 8 8 3 0 3 11 3 0 0 1 11 0 0 1 0 0 11 11 5 3 0 3 11 3 9
split_gain=55.8191 26.2959 24.6534 22.9501 38.696 30.0385 29.4789 29.8596 24.069 22.6086 21.5557 23.9201 19.8269 19.761 19.0758 18.976 17.6942 17.6306 37.6814 24.5623 18.1705 21.0571 17.13 33.6744 26.2875 29.8504 26.5155 23.0987 22.9435
threshold=4.6830000000000007 573.33032128514071 247.43378073770495 93.135500000000022 0 1 2 424.02850000000007 3 104.87100000000007 4 19.983000000000004 136.67700000000002 5 20.187999999999999 96.798000000000002 3.4495000000000005 6 189.76199999999997 199.24900000000005 11.593500000000065 20.798499999999997 7 8 189.76199999999997 9 12.729999999999967 10 0.06927905783176351
decision_type=2 2 2 2 1 1 9 2 9 2 9 2 2 1 2 2 2 1 2 2 2 2 9 9 2 9 2 9 2
left_child=1 2 -1 5 6 9 13 15 12 10 11 -4 14 -5 -6 -8 -2 18 -17 -20 -21 -22 27 28 -25 26 -26 -18 -24
right_child=16 -3 3 4 8 -7 7 -9 -10 -11 -12 -13 -14 -15 -16 17 22 -19 19 20 21 -23 23 24 25 -27 -28 -29 -30
leaf_value=-0.039325346785110404 0.20598923237994315 0.050889272031302224 0.027906193222271114 0.11456706543238118 0.020799063808680265 -0.018333961840003129 0.070675932795685889 -0.15954836298066838 0.0078554271994320992 -0.15001694533973933 -0.013328725778506599 -0.00067670228751593646 0.06150069534086039 -0.00052573998857821734 -0.12139317671812716 0.032255649084205217 -0.021724401127145892 -0.041402089778268925 -0.24890218603199929 0.036048773120520482 -0.2331426275894046 -0.0071019110434195586 -0.24476457333022897 0.074993988135965015 -0.22139750880164072 0.058165452322243044 -0.010457668320011737 0.023136874083882174 -0.01787535814330616
leaf_weight=782 21 349 1682 104 372 6204 85 65 4254 40 2873 3856 706 140 42 429 589 1075 29 59 32 34 22 722 37 138 67 1986 94
leaf_count=782 21 349 1682 104 372 6204 85 65 4254 40 2873 3856 706 140 42 429 589 1075 29 59 32 34 22 722 37 138 67 1986 94
internal_value=0 -0.00359507 -0.00442677 -0.00319083 0.0058671 -0.00778067 -0.0174514 -0.026307 0.014776 -1.16465e-05 0.000701716 0.00799006 0.0407595 0.0466196 0.00637376 -0.0214891 0.02293 -0.026214 0.00179135 -0.0830735 -0.0446012 -0.116697 0.0218782 0.0429327 0.0552996 -0.00117308 -0.0780033 0.0128311 -0.0560723
internal_weight=0 23212 22863 22081 7426 14655 2052 1808 5374 8451 8411 5538 1120 244 414 1743 3676 1658 583 154 125 66 3655 1080 964 242 104 2575 116
internal_count=26888 23212 22863 22081 7426 14655 2052 1808 5374 8451 8411 5538 1120 244 414 1743 3676 1658 583 154 125 66 3655 1080 964 242 104 2575 116
cat_boundaries=0 1 2 3 4 5 6 7 8 9 10 11
cat_threshold=163 1063 4904 3216 309 1 4 12 3072 144 550
is_linear=0
shrinkage=0.2


Tree=18
num_leaves=30
num_cat=9
split_feature=7 4 11 3 8 6 9 11 0 3 11 7 8 11 10 4 0 8 0 11 11 0 7 0 0 11 7 11 3
split_gain=43.2364 21.0662 19.4942 17.2081 41.7142 29.3745 23.0574 21.8334 33.305 32.2326 34.3014 27.8125 25.6567 22.6403 21.4885 19.4281 19.121 18.3726 21.6432 67.5641 28.473 27.3314 23.3133 23.1967 24.9356 19.3219 18.9346 18.61 17.1336
threshold=0.7220000000000002 0 -182.244 1 2 3 0.13001113706149589 -9.8905000000000047 584.78399999999988 4 -11.536999999999997 16.010000000000002 5 104.87100000000007 285.80151515151522 6 74.356000000000009 7 134.59250000000003 14.935000000000015 8.7405000000000062 113.65150000000001 2.1375000000000006 302.50450000000001 243.0515 -8.2664999999999953 6.0070000000000023 -8.6810000000000365 8
decision_type=2 9 2 9 1 1 2 2 2 9 2 2 1 2 2 9 2 1 2 2 2 2 2 2 2 2 2 2 9
left_child=-1 -2 -3 4 -4 -6 -7 9 11 12 -11 14 -5 -10 15 -9 -12 18 19 20 25 -21 -23 24 -20 27 -19 -16 -14
right_child=1 2 3 7 5 6 -8 8 13 10 16 -13 28 -15 17 -17 -18 26 23 21 -22 22 -24 -25 -26 -27 -28 -29 -30
leaf_value=-0.0072991281029338474 -0.026950050782233538 0.13410845109645059 -0.08894825755559066 -0.050307857212940989 0.030621900318983677 -0.10842942265550728 0.12423938993364572 0.00065108923172723114 -0.18501934730275363 0.07462567847841875 0.040192730669622069 0.059099619936558517 -0.048342059426738519 -0.0018769399435431872 0.0045481790658360461 -0.072216422881782913 -0.18245688612676331 0.021084350449530578 0.03631394151300741 -0.06639524716403454 0.088096866685330691 -0.11507798565615868 -0.39576110266149045 -0.081090810424403137 0.1744241720220695 -0.0054572216417275478 0.057402324539864262 0.21880726112473395 0.012642352939642386
leaf_weight=14656 617 51 225 603 526 115 20 877 54 315 27 620 220 54 34 166 36 3946 407 252 171 29 20 57 60 1110 672 31 917
leaf_count=14656 617 51 225 603 526 115 20 877 54 315 27 620 220 54 34 166 36 3946 407 252 171 29 20 57 60 1110 672 31 917
internal_value=0 0.0088065 0.0107199 0.010185 -0.0164959 0.00912448 -0.07396 0.0124027 0.0169128 -0.0057668 0.0464532 0.018323 -0.0172788 -0.0934481 0.015095 -0.0116324 -0.0870356 0.0192012 0.00393566 -0.00730988 0.011846 -0.0929704 -0.229643 0.039357 0.0540583 0.000749061 0.0263123 0.106733 0.00052379
internal_weight=0 12232 11615 11564 886 661 135 10678 8560 2118 378 8452 1740 108 7832 1043 63 6789 2171 1647 1346 301 49 524 467 1175 4618 65 1137
internal_count=26888 12232 11615 11564 886 661 135 10678 8560 2118 378 8452 1740 108 7832 1043 63 6789 2171 1647 1346 301 49 524 467 1175 4618 65 1137
cat_boundaries=0 2 3 4 5 6 7 9 10 11
cat_threshold=4202752 67633792 4608 608 2 1075 579 0 281018416 212 1040
is_linear=0
shrinkage=0.2


Tree=19
num_leaves=30
num_cat=7
split_feature=7 4 3 8 7 0 11 11 11 8 3 8 11 11 3 0 0 11 0 11 11 0 7 11 11 11 11 0 11
split_gain=28.8272 19.5081 19.333 29.9566 27.1813 24.8253 24.4346 36.7554 45.2993 42.0633 29.6798 58.1893 46.4317 61.2392 24.5585 28.8282 23.6258 28.8516 27.7598 44.7519 64.4981 32.3492 21.4463 30.9277 21.2642 20.6924 26.6293 20.3066 19.212
threshold=0.59850000000000014 0 1 2 27.615000000000006 294.19650000000007 -85.377499999999998 -10.257000000000012 -8.4829999999999988 3 4 5 -12.828999999999995 -24.185500000000005 6 21.456500000000009 528.3125 -2.2404999999999919 83.199000000000026 9.5254999999999956 12.729999999999967 102.29150000000001 20.180000000000003 4.2430000000000012 211.73749999999993 -63.789499999999983 47.660000000000011 63.790500000000002 71.659000000000006
decision_type=2 9 9 1 2 2 2 2 2 1 9 1 2 2 9 2 2 2 2 2 2 2 2 2 2 2 2 2 2
left_child=-1 -2 3 5 24 -3 -4 10 27 22 11 12 13 -8 15 -11 17 -16 -19 21 -21 -20 -10 -24 28 -7 -27 -9 -5
right_child=1 2 6 4 -6 25 7 8 9 14 -12 -13 -14 -15 16 -17 -18 18 19 20 -22 -23 23 -25 -26 26 -28 -29 -30
leaf_value=-0.0068551091451028532 -0.06626616779930232 -0.019859162643505606 0.13600605262740367 0.0075717005825566511 0.24193103820085526 -0.11165109063897814 -0.30121357967687207 0.063646992317685003 0.035824569610295995 -0.013053200340541136 0.037694358407044964 -0.013390591403570127 -0.46812876395881181 0.032555212978687555 -0.064577746566604172 0.10274368170218146 -0.12441544967889787 -0.015911059815212753 0.31133629023223314 -0.24629188162939891 0.050703271416675182 0.081776439342392648 -0.0043939678583826336 0.24176255302617747 -0.18787864473733037 0.19415005301435789 -0.00570963685361979 0.2302955459803343 0.085809543112554829
leaf_weight=12826 137 2632 69 6545 20 21 43 59 1812 171 194 360 20 45 289 173 75 674 37 35 178 73 35 49 22 60 48 58 128
leaf_count=12826 137 2632 69 6545 20 21 43 59 1812 171 194 360 20 45 289 173 75 674 37 35 178 73 35 49 22 60 48 58 128
internal_value=0 0.00625606 0.00701212 0.00189823 0.00910717 -0.0156041 0.0178756 0.0160554 0.0237863 0.019807 -0.0273635 -0.0539839 -0.176693 -0.130536 -0.00307961 0.0439055 -0.015189 -0.00893696 0.00719161 0.0553997 0.00190125 0.158992 0.0401924 0.139197 0.00842525 0.0700021 0.105324 0.146259 0.00907244
internal_weight=0 14062 13925 9476 6715 2761 4449 4380 3718 3601 662 468 108 88 1705 344 1361 1286 997 323 213 110 1896 84 6695 129 108 117 6673
internal_count=26888 14062 13925 9476 6715 2761 4449 4380 3718 3601 662 468 108 88 1705 344 1361 1286 997 323 213 110 1896 84 6695 129 108 117 6673
cat_boundaries=0 2 3 4 5 6 7 8
cat_threshold=4194304 512 6663 450 1347 1072 1120 1184
is_linear=0
shrinkage=0.2


Tree=20
num_leaves=30
num_cat=10
split_feature=10 7 10 4 1 3 8 0 8 11 4 0 0 8 0 7 0 11 0 11 10 11 3 0 0 11 0 5 3
split_gain=22.613 21.4056 18.5735 23.5629 17.5301 27.3457 29.8712 33.4842 27.6267 27.214 21.8031 21.778 18.171 26.4333 18.8714 17.7242 17.6506 17.0899 16.8916 16.7436 16.0311 15.7728 18.9333 18.3441 24.0355 16.0671 15.1271 14.4115 17.1043
threshold=166.91272485009998 0.24150000000000002 444.08509454104183 0 1 2 3 51.801500000000011 4 -85.377499999999998 5 584.78399999999988 57.320000000000007 6 343.73750000000001 2.3550000000000004 1142.0485000000001 -0.47449999999999887 48.482000000000006 47.660000000000011 337.82309941520481 -11.675499999999998 7 167.42700000000002 85.923999999999992 4.437500000000008 199.24900000000005 8 9
decision_type=2 2 2 9 1 9 1 2 1 2 9 2 2 1 2 2 2 2 2 2 2 2 9 2 2 2 2 9 9
left_child=-1 -2 3 -3 9 10 7 8 -7 -5 -6 15 13 -8 27 -11 -13 -10 -15 -16 -17 -22 -23 24 -24 -25 -27 -14 -29
right_child=1 2 -4 4 5 6 12 -9 17 11 -12 16 14 18 19 20 -18 -19 -20 -21 21 22 23 25 -26 26 -28 28 -30
leaf_value=-0.13574381588521053 -0.0087165690272848918 -0.027254017473557469 0.024878481807844695 0.10947509472850168 0.038433754676994447 -0.049904530532230457 0.018514610575824764 0.029228013891739603 -0.040067065857187084 0.0033979183605065927 -0.00046472830289522369 -0.16181632022338888 -0.030041712961359393 -0.052353412861228389 0.098997608798058481 0.010273394361943943 0.016099624031860577 0.067325617950957484 0.041200484294485265 -0.047894503058934654 -0.014091975975316019 -0.016000723847164177 0.047744328530624193 0.084977834277610853 0.12776080600544812 -0.17823387607932092 -0.00033241871625502064 -0.026371190769804848 -0.10542238374802088
leaf_weight=49 7629 1029 1539 108 902 529 742 1158 91 6098 1575 54 1116 509 73 1707 38 170 91 54 176 146 376 69 250 24 94 215 277
leaf_count=49 7629 1029 1539 108 902 529 742 1158 91 6098 1575 54 1116 509 73 1707 38 170 91 54 176 146 376 69 250 24 94 215 277
internal_value=0 0.000246165 0.0038056 0.00197032 0.00379141 -0.00337111 -0.0118382 0.00753154 -0.0241763 0.00967446 0.0137977 0.0084811 -0.0240855 -0.00668827 -0.0376808 0.00947736 -0.0883293 0.0287795 -0.0375388 0.0365395 0.0225218 0.0409431 0.0510433 0.0625112 0.0796998 0.00831342 -0.0365158 -0.0435427 -0.0720911
internal_weight=0 26839 19210 17671 16642 7502 5025 1948 790 9140 2477 9032 3077 1342 1735 8940 92 261 600 127 2842 1135 959 813 626 187 118 1608 492
internal_count=26888 26839 19210 17671 16642 7502 5025 1948 790 9140 2477 9032 3077 1342 1735 8940 92 261 600 127 2842 1135 959 813 626 187 118 1608 492
cat_boundaries=0 2 3 4 5 6 8 9 10 11 12
cat_threshold=307273984 67175040 4 312 1076 1040 2148007952 12583968 3 6144 5 4226
is_linear=0
shrinkage=0.2


Tree=21
num_leaves=30
num_cat=9
split_feature=8 3 0 8 3 11 11 11 3 11 11 11 3 11 3 0 4 11 11 0 0 4 7 11 11 0 0 0 11
split_gain=18.759 24.9008 20.2858 22.8459 31.0365 30.7605 20.8899 45.8836 20.5612 20.0773 35.251 26.5448 21.7139 24.1244 20.0533 19.2128 19.2012 22.8099 32.1251 26.5592 18.9798 18.7135 17.9343 17.7023 16.8834 37.0882 53.6082 82.3875 34.5129
threshold=0 1 79.057000000000031 2 3 -35.927499999999903 71.659000000000006 40.744 4 7.5810000000000111 17.814999999999944 6.5354999999999999 5 71.659000000000006 6 25.984500000000004 7 25.193499999999961 15.854500000000018 35.270000000000003 482.22850000000011 8 6.3750000000000009 44.838999999999992 -10.949999999999998 74.924500000000009 34.282500000000013 27.949500000000004 -12.257999999999997
decision_type=1 9 2 1 9 2 2 2 9 2 2 2 9 2 9 2 9 2 2 2 2 9 2 2 2 2 2 2 2
left_child=1 21 6 4 5 20 7 8 16 11 -11 24 -12 23 -5 -10 17 18 -2 -20 -4 -1 -9 -14 28 26 27 -26 -3
right_child=2 9 3 14 -6 -7 -8 22 15 10 12 -13 13 -15 -16 -17 -18 -19 19 -21 -22 -23 -24 -25 25 -27 -28 -29 -30
leaf_value=-0.032822780006193653 0.01517280797265249 -0.0045531622404772166 -0.09483004387897942 0.07381827576366598 0.012224794858456482 0.069621558885941764 0.089408855328355186 -0.079929780098720787 -0.027062846038693085 -0.061850726558359138 0.071407608137362535 0.10569529835377699 -0.026361546534047067 -0.19884301920731862 -0.0016288158436532905 -0.00031894920176368954 -0.0081839715928296031 0.11395603476950292 -0.15084994688908432 0.010420406788176337 0.1119105148250642 -0.0050909351788790465 -0.26667092181742191 0.11822609044611454 0.0075227545692468497 0.077263478785717987 -0.051231571787827279 0.16406288908941574 -0.15489846049674921
leaf_weight=2030 4022 479 78 136 2789 772 99 144 1912 452 170 115 175 27 4040 2453 2544 89 87 77 23 1888 24 42 1167 330 502 152 70
leaf_count=2030 4022 479 78 136 2789 772 99 144 1912 452 170 115 175 27 4040 2453 2544 89 87 77 23 1888 24 42 1167 330 502 152 70
internal_value=0 -0.00842612 0.00329974 0.011141 0.0226422 0.0554077 -0.00206457 -0.0028623 -0.0013039 0.00338844 -0.0232329 0.0115902 0.0189295 -0.0197501 0.000998749 -0.0120061 0.00555626 0.0137329 0.0116348 -0.0751315 -0.0477505 -0.0195064 -0.106607 0.00162316 0.00758202 0.015572 0.00439229 0.0255623 -0.0237229
internal_weight=0 7599 19289 7838 3662 873 11451 11352 11184 3681 866 2815 414 244 4176 4365 6819 4275 4186 164 101 3918 168 217 2700 2151 1821 1319 549
internal_count=26888 7599 19289 7838 3662 873 11451 11352 11184 3681 866 2815 414 244 4176 4365 6819 4275 4186 164 101 3918 168 217 2700 2151 1821 1319 549
cat_boundaries=0 1 2 3 4 5 6 7 9 11
cat_threshold=706 4611 1296 6160 305 2312 1544 1375731796 284224616 135266304 1653606073
is_linear=0
shrinkage=0.2


Tree=22
num_leaves=30
num_cat=7
split_feature=7 10 4 7 3 6 7 10 7 9 4 11 11 3 0 11 10 10 0 9 11 10 4 11 0 0 0 7 8
split_gain=16.1686 17.97 20.6243 16.4379 14.0955 27.7102 13.7136 12.9925 12.9484 13.6794 12.2278 18.1002 21.7749 17.7616 16.2215 17.0485 13.014 12.7541 14.1106 12.8762 10.4036 10.313 10.0574 9.56092 9.54754 14.5393 8.86263 20.416 8.67915
threshold=7.1810000000000009 377.35381290521781 0 1.0000000180025095e-35 1 2 6.3750000000000009 777.68133978097023 0.090000000000000024 0.10090259850727563 3 1.3094999999999999 1.9545000000000001 4 219.85600000000008 16.854000000000003 404.78816689466493 276.19680464778514 25.984500000000004 0.097169808486450085 -9.2000000000000117 166.91272485009998 5 36.969000000000015 528.3125 757.79399999999998 128.42250000000004 10.502500000000003 6
decision_type=2 2 9 2 9 1 2 2 2 2 9 2 2 9 2 2 2 2 2 2 2 2 9 2 2 2 2 2 1
left_child=1 2 6 20 5 -4 -1 22 9 -6 11 28 -13 14 15 26 24 18 -15 -20 -3 -10 -5 -18 -12 -26 27 -14 -2
right_child=10 3 4 7 8 -7 -8 -9 21 -11 16 12 13 17 -16 -17 23 -19 19 -21 -22 -23 -24 -25 25 -27 -28 -29 -30
leaf_value=-0.025324694606856487 -0.021513409488569432 -0.14812796529988911 0.022909089487707507 0.034980162190363644 -0.020673516770765059 -0.11381272615486743 -0.1373904561955068 0.11104135948192816 -0.11055576034328517 -0.16502972305924804 0.023634313378579054 -0.21897506439127029 -0.068398725055158135 -0.0049820338067708206 0.16896604480487962 -0.10949182323156259 0.16546718239868907 -0.018363682178661547 -0.29765598863363268 -0.10777857303619386 -0.025600619604572272 -0.00022081827552974812 0.0033473531827685056 0.006346353515982628 -0.16515954072000805 0.046506387472152716 -0.069042154848575593 0.15832154692170469 0.042660739139886578
leaf_weight=1487 113 43 107 408 955 133 45 46 34 27 1659 24 24 34 28 39 44 141 20 50 78 10109 10808 23 27 25 20 47 290
leaf_count=1487 113 43 107 408 955 133 45 46 34 27 1659 24 24 34 28 39 44 141 20 50 78 10109 10808 23 27 25 20 47 290
internal_value=0 -0.00161209 -0.00672376 0.00417947 -0.00376932 -0.0507433 -0.0284309 0.00496726 -0.00271129 -0.0246426 0.0149596 -0.00514819 -0.0339029 -0.0228813 0.029045 0.00114245 0.0242389 -0.0552969 -0.110687 -0.162029 -0.0691434 -0.000590668 0.00453222 0.110844 0.0209893 -0.0633971 0.0485571 0.0816837 0.0251912
internal_weight=0 24280 12897 11383 11365 240 1532 11262 11125 982 2608 830 427 403 158 130 1778 245 104 70 121 10143 11216 67 1711 52 91 71 403
internal_count=26888 24280 12897 11383 11365 240 1532 11262 11125 982 2608 830 427 403 158 130 1778 245 104 70 121 10143 11216 67 1711 52 91 71 403
cat_boundaries=0 2 3 4 6 7 9 10
cat_threshold=272631041 536874624 512 2 4194304 436732057 4097 4 16513 12
is_linear=0
shrinkage=0.2


Tree=23
num_leaves=30
num_cat=11
split_feature=10 4 0 8 3 11 11 8 8 0 3 0 7 3 0 0 7 8 7 3 0 8 7 11 5 0 7 7 11
split_gain=13.2035 13.8835 12.08 29.3996 20.247 17.1517 57.4118 27.6105 26.5008 26.2999 27.8604 23.4554 27.29 20.6972 25.4274 23.6807 22.5224 20.4258 24.0962 21.3318 20.0892 42.5177 26.8459 19.8519 19.7296 28.3455 18.8711 16.3717 26.9105
threshold=253.3333333333334 0 134.59250000000003 1 2 14.339999999999984 6.5354999999999999 3 4 100.9175 5 80.178500000000014 3.8000000000000012 6 104.873 93.135500000000022 6.0070000000000023 7 7.1810000000000009 8 33.280500000000011 9 18.9145 20.187999999999999 10 32.597500000000004 1.6200000000000008 1.9785000000000001 20.187999999999999
decision_type=2 9 2 1 9 2 2 1 1 2 9 2 2 9 2 2 2 1 2 9 2 1 2 2 9 2 2 2 2
left_child=1 -1 5 4 -4 6 13 9 -8 10 -7 -10 -13 -2 15 -15 -17 19 -19 -16 21 23 -22 -12 -9 -26 -23 -11 -29
right_child=2 -3 3 -5 -6 7 8 24 11 27 20 12 -14 14 17 16 -18 18 -20 -21 22 26 -24 -25 25 -27 -28 28 -30
leaf_value=-0.0014691937128121749 -0.017895780919935541 -0.046515261757577184 -0.036843460418062364 0.01813136838036537 0.0082686004009431321 0.064065024773922882 0.011136800124160282 -0.027260179087068282 0.032288514347480771 -0.029200660394285861 -0.038683806970715523 0.074070128354594686 0.23201969367105005 0.0010473814679716139 0.067615096564130756 0.031445480645144068 0.17519962937027839 -0.042145051491758553 -0.17572212581385355 -0.0225278582574432 0.005287713490902666 -0.064213299909992333 0.19842699905236563 0.12838794681610485 0.012837676407738788 -0.14870469219341184 -0.19729001906929178 0.0046646579368306062 -0.25097953639924525
leaf_weight=633 3167 480 776 4044 804 284 1250 674 621 166 50 308 51 10633 126 475 48 472 61 451 712 169 30 66 61 151 57 28 40
leaf_count=633 3167 480 776 4044 804 284 1250 674 621 166 50 308 51 10633 126 475 48 472 61 451 712 169 30 66 61 151 57 28 40
internal_value=0 -0.0213272 0.000921619 0.0091174 -0.0139801 -0.00136576 0.000824154 -0.0169126 0.0308207 -0.0010926 0.00949899 0.0552503 0.0965086 -0.00351021 0.000218458 0.00309098 0.044639 -0.0286497 -0.0563748 -0.00202673 -0.00533867 -0.0454917 0.0130966 0.0519001 -0.044997 -0.0976185 -0.0936338 -0.0630593 -0.145714
internal_weight=0 1113 25775 5624 1580 20151 17663 2488 2230 1602 1368 980 359 15433 12266 11156 523 1110 533 577 1084 342 742 116 886 212 226 234 68
internal_count=26888 1113 25775 5624 1580 20151 17663 2488 2230 1602 1368 980 359 15433 12266 11156 523 1110 533 577 1084 342 742 116 886 212 226 234 68
cat_boundaries=0 2 3 4 5 6 7 8 9 10 11 12
cat_threshold=2147483904 46137360 163 2066 1070 1562 258 4930 209 16 6 1
is_linear=0
shrinkage=0.2


Tree=24
num_leaves=30
num_cat=8
split_feature=4 10 3 8 7 7 7 1 8 10 7 0 0 7 11 0 0 0 11 10 11 11 10 7 5 4 9 7 4
split_gain=12.3552 11.294 10.5158 11.8327 22.1756 20.1265 14.402 15.1852 11.5005 17.7658 32.1847 24.6436 12.8657 9.50317 11.5537 9.39808 14.8936 16.7062 19.0446 16.139 9.12285 12.32 8.92949 8.85479 11.2801 15.136 16.2806 13.0216 10.7152
threshold=0 749.75714285714298 1 2 26.730000000000004 24.003000000000004 -0.17549999999999996 3 4 294.11507936507945 7.1810000000000009 30.250000000000004 10.525 9.8050000000000033 -31.949499999999993 371.84950000000009 84.623000000000033 70.762000000000015 2.3375000000000044 368.73611111111126 -9.2000000000000117 22.62749999999998 166.91272485009998 6.0070000000000023 5 6 0.11051212938005398 2.2855000000000003 7
decision_type=9 2 9 1 2 2 2 1 1 2 2 2 2 2 2 2 2 2 2 2 2 2 2 2 9 9 2 2 9
left_child=1 13 8 4 5 -4 7 -5 -2 11 -11 12 -10 -1 -15 16 17 18 -16 -20 -18 -22 -8 24 25 26 27 -24 -26
right_child=2 -3 3 6 -6 -7 22 -9 9 10 -12 -13 -14 14 15 -17 20 -19 19 -21 21 -23 23 -25 28 -27 -28 -29 -30
leaf_value=0.0043289692223792905 -0.0067148538508922176 0.095964543567970406 -0.013493764992483843 -0.18907196377262925 -0.22335660193115472 0.14099715673090782 -0.12258817711845041 0.025440874915908684 -0.0071998778816961331 0.038642329286511352 0.25201894260942936 -0.11591692016176557 0.13592920494398902 0.17399698819803155 0.1020718236820716 -0.10204502315748305 -0.0013719267127188768 -0.12947830753667014 0.04740940244758831 -0.14893097398859081 0.14225988638016485 0.0030514882504940038 -0.050870540371656219 0.013297512228166712 0.0032298513833393669 -0.0071484667205368169 0.012711288154043838 -0.1466262894413288 -0.013875958462000116
leaf_weight=7803 567 56 4255 33 20 34 24 22 89 492 30 69 35 23 66 21 44 35 34 33 93 35 180 1631 7972 1222 103 83 1784
leaf_count=7803 567 56 4255 33 20 34 24 22 89 492 30 69 35 23 66 21 44 35 34 33 93 35 180 1631 7972 1222 103 83 1784
internal_value=0 0.00644502 -0.00284874 -0.00414205 -0.0132182 -0.0122691 -0.00113829 -0.103267 0.0145639 0.031298 0.0509054 -0.0201116 0.0331995 0.00584057 0.0365567 0.0278002 0.03582 -0.00653454 0.0258191 -0.0492956 0.0771896 0.104195 -0.000707054 -0.000481609 -0.00246272 -0.0180378 -0.0532378 -0.08109 9.08462e-05
internal_weight=0 8243 18645 17363 4309 4289 13054 55 1282 715 522 193 124 8187 384 361 340 168 133 67 172 128 12999 12975 11344 1588 366 263 9756
internal_count=26888 8243 18645 17363 4309 4289 13054 55 1282 715 522 193 124 8187 384 361 340 168 133 67 172 128 12999 12975 11344 1588 366 263 9756
cat_boundaries=0 2 3 4 5 6 7 9 11
cat_threshold=2097250420 174187844 288 194 4 1804 12 4194304 536871432 2181038080 1947731995
is_linear=0
shrinkage=0.2


Tree=25
num_leaves=30
num_cat=6
split_feature=7 9 11 0 8 11 0 11 0 7 7 0 0 0 8 0 4 7 0 11 0 8 1 0 8 7 11 0 11
split_gain=10.6174 9.67988 11.3828 31.8839 23.6619 22.1077 18.6373 18.3617 22.854 16.6035 16.4315 16.0943 15.1859 14.289 12.7663 12.0106 11.126 11.7884 10.3456 23.035 21.4721 16.9493 20.1964 29.8542 26.3137 27.9311 23.9654 24.5857 28.0119
threshold=0.090000000000000024 1.0000000180025095e-35 36.969000000000015 1142.0485000000001 0 55.479500000000009 1142.0485000000001 31.867499999999996 58.521000000000008 3.120000000000001 16.933500000000006 61.438000000000009 199.24900000000005 7.0845000000000011 1 394.55800000000011 2 4.0010000000000012 79.057000000000031 -9.2000000000000117 584.78399999999988 3 4 191.93800000000002 5 4.6830000000000007 19.709500000000016 98.135000000000005 7.8250000000000073
decision_type=2 2 2 2 1 2 2 2 2 2 2 2 2 2 1 2 9 2 2 2 2 1 1 2 1 2 2 2 2
left_child=-1 -2 3 7 11 10 9 16 -9 -7 14 13 -11 -4 -6 -10 17 -3 -18 -20 21 -21 -23 26 25 -25 27 28 -24
right_child=1 2 4 -5 5 6 -8 8 15 12 -12 -13 -14 -15 -16 -17 18 -19 19 20 -22 22 23 24 -26 -27 -28 -29 -30
leaf_value=-0.011472893856312347 0.14045774713158607 -0.027887314413554777 -0.030745015170521525 0.18786639589312915 0.01390562146505777 0.01244511127126004 -0.088719781316243695 0.1580326765193604 0.041709590573326905 0.17413321770062407 -0.19576954488521037 -0.038624559114388946 0.045379006867033417 -0.20536809302163572 -0.046976896510588374 -0.091209475498180842 -0.0016994731810651067 -0.1833907893070808 -0.0059232605026547465 0.03361812203710051 -0.18178973360495135 -0.013908021691439077 0.0089864904021543617 0.081815616635204355 0.012906844551912891 0.25947971828281879 -0.038854083292478123 0.033036653016875681 -0.097035713457217856
leaf_weight=2881 20 78 29 37 225 350 52 64 181 56 23 203 106 53 340 32 13561 26 3301 1561 22 1103 381 181 221 44 355 1267 135
leaf_count=2881 20 78 29 37 225 350 52 64 181 56 23 203 106 53 340 32 13561 26 3301 1561 22 1103 381 181 221 44 355 1267 135
internal_value=0 0.00137636 0.0012604 0.00236022 -0.0159984 -0.00290258 0.0253617 0.00205534 0.0532304 0.0369481 -0.0300626 -0.066498 0.0898866 -0.143611 -0.023317 0.0217405 0.00141784 -0.0609068 0.00173744 0.00717734 0.0153832 0.0162098 0.00872463 0.0184193 0.065487 0.111599 0.00860069 0.0180491 -0.0187519
internal_weight=0 24007 23987 22550 1437 1152 564 22513 277 512 588 285 162 82 565 213 22236 104 22132 8571 5270 5248 3687 2584 446 225 2138 1783 516
internal_count=26888 24007 23987 22550 1437 1152 564 22513 277 512 588 285 162 82 565 213 22236 104 22132 8571 5270 5248 3687 2584 446 225 2138 1783 516
cat_boundaries=0 1 2 4 5 6 7
cat_threshold=417 12 4202496 67108864 1312 2 90
is_linear=0
shrinkage=0.2


Tree=26
num_leaves=30
num_cat=7
split_feature=8 3 11 11 11 11 0 7 0 7 7 3 11 7 11 0 11 0 0 9 4 7 7 7 10 5 4 3 9
split_gain=9.60931 20.8071 32.6939 18.2785 36.5913 40.8598 28.9201 27.5143 25.64 17.711 16.4356 14.6387 11.3259 23.0667 10.6583 26.1085 23.9263 19.7972 15.8463 14.938 9.71179 12.0039 11.3118 9.35454 8.90273 7.82375 13.6211 17.1333 12.788
threshold=0 1 -5.0790000000000051 4.6859999999999991 14.62050000000003 17.814999999999944 117.4235 0.71050000000000013 36.725500000000018 1.6075000000000002 2.580000000000001 2 -2.0200000000000009 1.0295000000000003 -10.949999999999998 74.924500000000009 -13.942500000000001 83.728000000000023 59.653500000000001 0.11179859631086533 3 -0.17549999999999996 26.444000000000003 3.180000000000001 749.75714285714298 4 5 6 0.11056865734151548
decision_type=1 9 2 2 2 2 2 2 2 2 2 9 2 2 2 2 2 2 2 2 9 2 2 2 2 9 9 9 2
left_child=1 3 -3 11 6 9 8 -8 -5 -6 12 -1 13 -4 16 18 -13 -18 19 -16 21 -2 -23 -7 25 26 -22 -28 -29
right_child=20 2 10 4 5 23 7 -9 -10 -11 -12 14 -14 -15 15 -17 17 -19 -20 -21 24 22 -24 -25 -26 -27 27 28 -30
leaf_value=-0.040604782229688552 -0.11557558446656913 0.016074545830026304 -0.036801650917271243 0.17083540312749776 -0.081568556409655962 0.016756613951850127 0.039047163523112736 0.23736451056760713 -0.020177207548166973 -0.30031671628355983 -0.090784385769180798 0.059265977468179624 -0.02411729881022415 -0.23802847121992421 -0.0042131284828342145 0.09816139312250946 -0.019252042124668758 -0.25099041495343738 -0.17680633306503296 0.15224472669741285 -0.0012737766353179414 0.0065549168193334119 0.095173732409703324 0.14669305165940574 0.079350864090439344 0.00028391094805894478 0.04583111030980945 -0.052744412787918318 0.0025945997426109349
leaf_weight=340 32 557 86 38 57 94 45 74 108 20 227 46 936 31 399 133 30 29 20 26 1900 8689 58 29 54 11825 100 684 221
leaf_count=340 32 557 86 38 57 94 45 74 108 20 227 46 936 31 399 133 30 29 20 26 1900 8689 58 29 54 11825 100 684 221
internal_value=0 -0.0100477 -0.0242405 0.00751877 0.0404477 -0.0241326 0.0891876 0.162371 0.0295384 -0.138386 -0.0419732 -0.00737542 -0.0314507 -0.0901182 0.00961993 0.0204095 -0.0488576 -0.133157 -0.00282877 0.00535841 0.00142227 0.0066876 0.00714253 0.047392 -0.00170679 -0.0020051 -0.0112848 -0.0300122 -0.0388019
internal_weight=0 3325 1837 1488 465 200 265 119 146 77 1280 1023 1053 117 683 578 105 59 445 425 23563 8779 8747 123 14784 14730 2905 1005 905
internal_count=26888 3325 1837 1488 465 200 265 119 146 77 1280 1023 1053 117 683 578 105 59 445 425 23563 8779 8747 123 14784 14730 2905 1005 905
cat_boundaries=0 1 2 3 5 6 8 9
cat_threshold=192 2226 2 2080440436 149022052 12 2181039105 269486097 4268
is_linear=0
shrinkage=0.2


Tree=27
num_leaves=30
num_cat=10
split_feature=7 9 10 0 10 10 4 10 8 7 0 0 11 10 3 0 11 3 0 9 3 4 7 8 4 3 0 0 5
split_gain=8.36347 11.5209 10.2919 9.30492 8.3195 12.8256 7.90423 7.51621 13.3567 9.8475 10.475 9.58266 8.97164 8.77988 7.97667 9.8899 7.24475 13.9955 9.51474 6.312 6.99602 7.34562 6.9154 5.87364 11.0442 13.5584 16.8143 9.14016 6.91421
threshold=1.8985000000000001 0.01376108062473618 460.62642012351438 3574.1125000000006 417.20943613348692 417.06463941382111 0 386.79977876106199 1 13.827500000000002 10.121000000000002 584.78399999999988 47.660000000000011 381.67744466651862 2 80.178500000000014 -13.474000000000006 3 44.856500000000018 0.094372456969488455 4 5 0.060000000000000032 6 7 8 33.280500000000011 189.76199999999997 9
decision_type=2 2 2 2 2 2 9 2 1 2 2 2 2 2 9 2 2 9 2 2 9 9 2 1 9 9 2 2 9
left_child=3 -2 6 4 5 19 -3 13 9 10 -9 14 16 23 15 -10 -12 -18 -19 -1 -21 -22 -23 24 -8 26 -26 -27 -25
right_child=1 2 -4 -5 -6 -7 7 8 11 -11 12 -13 -14 -15 -16 -17 17 18 -20 20 21 22 -24 28 25 27 -28 -29 -30
leaf_value=-0.0015168924315938671 0.14156337153911591 -0.024423180312433908 0.077312638504501388 -0.12399847421050073 0.00597222061866951 -0.13689898828140878 0.068347793618787928 0.18216199338436129 0.10962619424339325 0.1805697798728943 -0.025095872712080126 -0.126399072191932 -0.056160148363560439 -0.059053817648026675 -0.003712213646802234 0.010573635997051108 0.083911281433207044 -0.073339747500848845 0.037862984571726099 -0.001013616975523105 -0.0043181844172326071 -0.12670706907686377 -0.026187371235739432 -0.0063919679748571726 -0.16430747788399458 0.039396315824262298 -0.0071841805341786571 -0.049162412986711222 0.0095919321571526842
leaf_weight=11970 25 344 79 25 4229 29 145 20 63 21 54 22 40 90 605 112 213 46 93 1650 892 28 1229 2267 36 341 112 54 2054
leaf_count=11970 25 344 79 25 4229 29 145 20 63 21 54 22 40 90 605 112 213 46 93 1650 892 28 1229 2267 36 341 112 54 2054
internal_value=0 0.00604203 0.0055446 -0.00205867 -0.00190645 -0.00401551 0.0047024 0.00629921 0.0199537 0.0456609 0.0405612 0.00372772 0.0342113 0.00285977 0.00744575 0.0437335 0.0431149 0.0535791 0.0009908 -0.00377113 -0.0108738 -0.0183544 -0.0282021 0.00397221 0.0209937 0.00734119 -0.0425297 0.0266157 0.00121063
internal_weight=0 6836 6811 20052 20027 15798 6732 6388 1289 487 466 802 446 5099 780 175 406 352 139 15769 3799 2149 1257 5009 688 543 148 395 4321
internal_count=26888 6836 6811 20052 20027 15798 6732 6388 1289 487 466 802 446 5099 780 175 406 352 139 15769 3799 2149 1257 5009 688 543 148 395 4321
cat_boundaries=0 2 3 4 5 6 8 9 11 12 13
cat_threshold=541098240 590464 1297 1034 529 169 0 940048513 928 0 134218753 4610 8
is_linear=0
shrinkage=0.2


Tree=28
num_leaves=30
num_cat=7
split_feature=10 4 8 0 7 3 11 11 8 11 0 0 1 7 11 11 7 8 11 0 0 11 8 0 0 7 10 0 0
split_gain=7.46703 11.1376 8.53083 7.84367 7.26116 8.45837 18.4594 13.7578 10.336 12.0318 12.7173 21.5705 15.5002 24.565 12.104 19.7645 10.5382 10.0121 9.77499 15.2563 9.38891 16.0611 9.36228 9.97448 9.44458 9.71634 18.3073 8.29551 29.9962
threshold=247.43378073770495 0 1 38.330500000000008 0.060000000000000032 2 -35.927499999999903 3.2890000000000006 3 -110.86099999999981 224.35949999999997 214.65000000000003 4 16.933500000000006 -23.698000000000008 -49.014000000000046 27.615000000000006 5 1.6644999999999952 11.050000000000002 24.9145 15.854500000000018 6 94.364000000000019 47.420999999999999 1.0275000000000001 294.16648822269832 152.66050000000004 177.43249999999998
decision_type=2 9 1 2 2 9 2 2 1 2 2 2 1 2 2 2 2 1 2 2 2 2 1 2 2 2 2 2 2
left_child=1 -1 3 -3 -2 6 -6 18 9 -7 11 27 -12 14 15 -14 -10 20 22 -20 -9 -22 23 24 25 -8 -27 -11 -29
right_child=4 2 -4 -5 5 8 7 17 16 10 12 -13 13 -15 -16 -17 -18 -19 19 -21 21 -23 -24 -25 -26 26 -28 28 -30
leaf_value=-0.073007071396708492 -0.013432393331233656 0.049793768291930107 -0.024068745683539845 -0.012519037930623573 0.067675869674306485 -0.092825159221314471 -0.001121855521386908 0.055909487477650767 0.0025049833846944097 -0.0050251377417060098 -0.089408184789322526 -0.1381047527515786 0.074887783938285088 0.24636106478131337 0.057337300400077201 -0.13541734289043608 0.12317376342313043 0.043626771971199935 0.066246905260636091 -0.10907750127216181 -0.20923041758413261 -0.0035291893977899939 0.0090834290958094824 -0.14772768296577313 0.075006916661125925 0.010233395025134089 -0.17572466869321135 -0.093425865610812453 0.01658680392169919
leaf_weight=115 1385 154 537 170 222 65 129 38 16571 4678 37 51 33 23 189 39 29 511 27 75 22 49 1193 27 36 40 45 187 211
leaf_count=115 1385 154 537 170 222 65 129 38 16571 4678 37 51 33 23 189 39 29 511 27 75 22 49 1193 27 36 40 45 187 211
internal_value=0 -0.0171634 -0.00875499 0.0165868 0.0006566 0.00145218 0.0126675 0.00715417 0.000222018 -0.0072733 -0.00626593 -0.00868378 0.0323519 0.0482151 0.0307539 -0.0390275 0.00271416 0.032384 -0.00279655 -0.0626681 -0.022281 -0.0672676 0.0013578 -0.0311198 -0.019771 -0.0357149 -0.088215 -0.00738345 -0.0351026
internal_weight=0 976 861 324 25912 24527 2414 2192 22113 5513 5448 5127 321 284 261 72 16600 620 1572 102 109 71 1470 277 250 214 85 5076 398
internal_count=26888 976 861 324 25912 24527 2414 2192 22113 5513 5448 5127 321 284 261 72 16600 620 1572 102 109 71 1470 277 250 214 85 5076 398
cat_boundaries=0 2 3 4 5 6 7 8
cat_threshold=0 40 651 1448 194 2 1088 1792
is_linear=0
shrinkage=0.2


Tree=29
num_leaves=30
num_cat=10
split_feature=10 7 4 8 3 7 0 3 8 11 8 0 0 8 7 7 11 0 0 0 11 0 0 4 3 7 7 8 0
split_gain=6.88116 14.7679 12.4363 10.1983 9.55299 8.94222 10.1938 7.06239 10.0366 14.4882 8.41193 13.2628 11.2281 11.9457 11.0674 10.4661 12.6335 10.8851 13.0787 10.3267 21.7447 15.9608 22.7603 14.3162 11.0566 15.4296 10.9347 10.1462 23.0005
threshold=336.66707427536238 26.020000000000003 0 1 2 0.87050000000000016 60.768000000000008 3 4 3.4705000000000052 5 31.206500000000002 27.949500000000004 6 1.5815000000000003 4.1835000000000013 6.9940000000000078 50.219000000000008 71.256500000000017 46.615000000000002 3.0410000000000079 58.521000000000008 55.592000000000006 7 8 1.7395000000000003 5.3035000000000005 9 126.63000000000001
decision_type=2 2 9 1 9 2 2 9 1 2 1 2 2 1 2 2 2 2 2 2 2 2 2 9 9 2 2 1 2
left_child=2 7 3 -1 -4 -6 -7 10 9 -9 15 12 13 14 -12 -2 -17 -18 -19 20 26 22 -21 -23 -22 -26 -13 28 -20
right_child=1 -3 4 -5 5 6 -8 8 -10 -11 11 19 -14 -15 -16 16 17 18 27 21 24 23 -24 -25 25 -27 -28 -29 -30
leaf_value=-0.015557610635976658 0.0026786307758919058 0.16236568532236245 -0.0096410369469147605 0.0024044389623095516 -0.025573089773367558 -0.14440357182452929 -0.043386053287358298 0.012981407019887087 0.00017223519689623436 0.070957245026537885 0.029158403318695972 -0.0079516495148341335 0.054571737832604696 -0.0034533805637529109 0.15602376328841333 0.0051436636174335623 -0.022233702345141049 0.18203277517306179 -0.15423940679541343 0.0016573511778253053 -0.02526030933695856 -0.025390390050523671 0.084634376340213105 -0.0011439115381882889 -0.080453228224544385 -0.23619518263205405 0.14345274895429613 0.090272484441026521 0.059243778468808163
leaf_weight=1607 8289 23 799 5791 280 67 99 571 985 247 244 415 208 1243 31 454 58 38 27 541 164 1567 175 2563 142 31 20 129 80
leaf_count=1607 8289 23 799 5791 280 67 99 571 985 247 244 415 208 1243 31 454 58 38 27 541 164 1567 175 2563 142 31 20 129 80
internal_value=0 0.00220663 -0.00464409 -0.00151303 -0.023052 -0.0463393 -0.0841582 0.00200448 0.0138501 0.0301194 0.000694829 -0.00433419 0.0109938 0.0050226 0.0419347 0.00476489 0.0268268 0.0564777 0.0731393 -0.00905106 -0.0305344 -0.00562862 0.021938 -0.0104077 -0.0686697 -0.102439 -0.000990528 0.0556056 0.00491486
internal_weight=0 18245 8643 7398 1245 446 166 18222 1803 818 16419 7344 1726 1518 275 9075 786 332 274 5618 772 4846 716 4130 337 173 435 236 107
internal_count=26888 18245 8643 7398 1245 446 166 18222 1803 818 16419 7344 1726 1518 275 9075 786 332 274 5618 772 4846 716 4130 337 173 435 236 107
cat_boundaries=0 2 3 4 5 6 7 8 10 11 12
cat_threshold=1124114689 281018481 848 6147 6355 7 1848 1 5932352 671089792 2177 24
is_linear=0
shrinkage=0.2


Tree=30
num_leaves=30
num_cat=7
split_feature=7 1 3 0 4 5 4 11 7 7 0 3 11 8 11 0 11 0 11 7 11 11 11 7 0 7 0 7 0
split_gain=5.79667 7.46243 20.3628 20.4692 15.7637 14.4407 14.2523 14.1154 13.5368 13.1496 12.9904 17.3222 29.6538 21.0005 18.2457 14.4276 12.0303 11.7665 24.1642 15.7706 12.4762 17.8717 12.3718 11.685 11.6355 12.4533 11.1264 11.1198 11.5011
threshold=0.17050000000000004 0 1 3.4495000000000005 2 3 4 -85.377499999999998 4.8115000000000014 17.810000000000006 278.86750000000006 5 -5.4299999999999491 6 -12.828999999999995 442.875 33.480000000000018 93.135500000000022 -31.949499999999993 17.810000000000006 44.838999999999992 71.659000000000006 104.87100000000007 25.260000000000002 104.873 1.3550000000000002 394.55800000000011 4.5035000000000016 330.66000000000008
decision_type=2 1 9 2 9 9 9 2 2 2 2 9 2 1 2 2 2 2 2 2 2 2 2 2 2 2 2 2 2
left_child=-1 7 3 -3 5 8 9 -2 -4 -5 17 15 14 -14 26 16 -12 19 -19 20 -9 -22 -23 -7 25 -20 -13 -8 -29
right_child=1 2 4 6 -6 23 27 10 -10 -11 11 12 13 -15 -16 -17 -18 18 24 -21 21 22 -24 -25 -26 -27 -28 28 -30
leaf_value=-0.0061252652097520061 0.067288148811354032 0.1112457904809465 0.051288085289691622 -0.03028161159261757 -0.0055340809314832528 0.0091405633780258823 -0.011972593179636757 0.00079034043439267813 0.21939820305754743 -0.11551628778628134 0.016029649668327366 -0.18353359087787827 -0.068926241488089998 0.037759313466786237 -0.31195579734833345 0.10101336469903353 -0.12174648144282402 -0.048600882253445249 0.025196497048689023 0.047055890949629892 -0.10157634892374311 0.087890430111834339 -0.069171182896409708 0.14640333408117295 0.014974258273771865 0.095870576931262705 -0.0014648251272737979 0.023284703170851111 0.18000815548002722
leaf_weight=5019 143 48 95 1212 4203 3221 1051 7148 24 77 122 29 157 125 23 63 32 221 283 289 114 47 35 25 2755 154 25 126 22
leaf_count=5019 143 48 95 1212 4203 3221 1051 7148 24 77 122 29 157 125 23 63 32 221 283 289 114 47 35 25 2755 154 25 126 22
internal_value=0 0.00141133 -0.00257529 -0.0180461 0.00262928 0.0128118 -0.020613 0.00483512 0.0785886 -0.0351009 0.00406668 -0.0252147 -0.0513476 -0.0227418 -0.16278 0.0194871 -0.0125992 0.00559357 0.0153554 0.0012287 -0.000574686 -0.0503564 0.0208519 0.0101664 0.0197834 0.0501022 -0.0992425 -0.00470566 0.0465814
internal_weight=0 21869 10104 2536 7568 3365 2488 11765 119 1289 11622 576 359 282 77 217 154 11046 3413 7633 7344 196 82 3246 3192 437 54 1199 148
internal_count=26888 21869 10104 2536 7568 3365 2488 11765 119 1289 11622 576 359 282 77 217 154 11046 3413 7633 7344 196 82 3246 3192 437 54 1199 148
cat_boundaries=0 1 2 4 5 7 8 9
cat_threshold=4 5634 337118485 6942256 4 810549505 310906536 522 1061
is_linear=0
shrinkage=0.2


Tree=31
num_leaves=30
num_cat=6
split_feature=10 10 4 0 8 0 8 11 11 0 7 11 11 11 11 0 11 3 11 11 0 0 8 0 0 0 11 8 11
split_gain=5.57942 5.2525 7.69991 5.76072 15.0663 13.0583 22.8493 37.0827 47.0311 53.541 16.1995 11.8152 15.9395 14.3697 11.1886 10.7284 10.5604 25.1752 14.3638 12.7316 12.1168 10.6578 21.0006 12.4017 10.2578 9.92782 20.4561 30.6313 20.2976
threshold=166.91272485009998 487.53147408911121 0 134.59250000000003 1 119.01300000000002 2 16.854000000000003 -7.0729999999999977 121.39750000000002 12.820000000000002 9.5254999999999956 15.501999999999994 -5.516000000000008 -35.927499999999903 128.42250000000004 36.969000000000015 3 31.867499999999996 122.8180000000002 8.2385000000000037 77.413000000000025 4 44.129500000000014 136.67700000000002 79.057000000000031 1.7345000000000061 5 12.729999999999967
decision_type=2 2 9 2 1 2 1 2 2 2 2 2 2 2 2 2 2 9 2 2 2 2 1 2 2 2 2 1 2
left_child=-1 2 -2 5 -5 16 7 8 9 -7 -8 13 -13 -10 -11 -15 18 19 25 -18 -20 22 23 -19 -6 -4 -27 28 -28
right_child=1 -3 3 4 24 6 10 -9 11 14 -12 12 -14 15 -16 -17 17 21 20 -21 -22 -23 -24 -25 -26 26 27 -29 -30
leaf_value=-0.067425580529914222 -0.02772923335158415 0.014052274048202144 -0.0023073761902289028 0.013612261961305798 0.062103724150470441 -0.40576099205017091 0.0066902940904281227 -0.26717425540766937 0.12465491758092591 0.0093423111616347514 -0.14391200492779416 0.15402483282134283 -0.052247474091532443 -0.10110309789006758 -0.13290029668672518 0.019320776021846064 -0.13357136250195797 -0.017277163879147597 0.21218225151300429 0.004333229469401496 0.041061766040123376 -0.05184905346433976 -0.021721118529420838 0.13870655011634034 -0.011495223755416152 -0.0030110132695704405 0.075480541082353081 -0.0066686345703258626 0.0089330688175872312
leaf_weight=49 397 1041 14814 3483 79 25 599 33 23 37 30 43 23 67 55 53 114 28 20 35 96 114 179 75 1840 2111 550 600 275
leaf_count=49 397 1041 14814 3483 79 25 599 33 23 37 30 43 23 67 55 53 114 28 20 35 96 114 179 75 1840 2111 550 600 275
internal_value=0 0.000123992 -0.000438042 -5.82422e-07 0.00579463 -0.00156595 -0.0239838 -0.0633769 -0.0446912 -0.146221 -0.000484936 0.0121461 0.0821421 -0.0201597 -0.075694 -0.0479159 -0.000400897 -0.0278391 0.000408907 -0.0948143 0.0705653 -0.000238554 0.0206168 0.0877808 -0.00842147 -3.45883e-05 0.00948721 0.0280021 0.0526598
internal_weight=0 26839 25798 25401 5402 19999 988 359 326 117 629 209 66 143 92 120 19011 545 18466 149 116 396 282 103 1919 18350 3536 1425 825
internal_count=26888 26839 25798 25401 5402 19999 988 359 326 117 629 209 66 143 92 120 19011 545 18466 149 116 396 282 103 1919 18350 3536 1425 825
cat_boundaries=0 2 3 4 5 6 7
cat_threshold=272630784 67141632 1868 70 6160 14 1384
is_linear=0
shrinkage=0.2


Tree=32
num_leaves=30
num_cat=7
split_feature=10 4 8 7 10 7 1 7 10 7 7 11 0 0 10 7 8 3 0 3 0 7 11 1 11 11 11 0 0
split_gain=4.78276 7.11708 10.9965 11.2244 10.4754 13.2663 9.19109 8.12996 12.0497 7.48333 6.95058 7.81552 5.00558 7.35647 5.96555 4.91384 5.37934 16.0296 24.488 13.3905 21.4858 19.8845 12.668 12.2094 16.2995 14.4165 11.9907 11.0463 18.1972
threshold=412.50091709464425 0 1 17.104000000000003 362.83333333333348 1.3550000000000002 2 8.2100000000000026 370.50809523809534 7.4000000000000012 3.4200000000000008 71.659000000000006 81.387500000000017 109.56200000000003 453.32946047008551 1.7395000000000003 3 4 189.76199999999997 5 125.03150000000001 26.730000000000004 34.474000000000039 6 22.62749999999998 8.7405000000000062 11.593500000000065 219.85600000000008 199.24900000000005
decision_type=2 9 1 2 2 2 1 2 2 2 2 2 2 2 2 2 1 9 2 9 2 2 2 1 2 2 2 2 2
left_child=1 2 4 -4 -1 -6 9 8 -8 -7 -2 12 -12 -14 -15 -3 17 27 -19 -18 21 22 23 -21 25 -25 -27 28 -17
right_child=10 15 3 -5 5 6 7 -9 -10 -11 11 -13 13 14 -16 16 19 18 -20 20 -22 -23 -24 24 -26 26 -28 -29 -30
leaf_value=-0.010313850556061988 0.0035936059527275606 -0.0025088876514348379 -0.0030487537310415484 0.1450836519400279 -0.024569657447262153 -0.10619077826699903 -0.2257997096649238 -0.23963925198272423 -0.034167756913895057 0.046327981691468845 0.0070688620371969811 -0.038736978943149251 0.17724560816650806 0.032054598211310806 0.13959058961616114 0.027813807206231268 -0.0095802287893622193 0.0090659968438390783 -0.080531761261581042 -0.021355253963870034 0.055145267284499457 -0.16171050934955991 -0.1418227784011675 0.024087781783351719 0.14943058680038196 -0.1558486563836535 -0.014714232502031889 0.086931629548966882 -0.16531474978197369
leaf_weight=340 5507 13560 797 21 174 31 21 27 35 22 66 45 23 100 26 805 2370 695 148 416 385 29 23 888 37 30 122 125 20
leaf_count=340 5507 13560 797 21 174 31 21 27 35 22 66 45 23 100 26 805 2370 695 148 416 385 29 23 888 37 30 122 125 20
internal_value=0 -0.00139627 -0.0147805 0.000745048 -0.034034 -0.0611476 -0.107946 -0.149493 -0.10603 -0.0428811 0.00510228 0.0370571 0.052921 0.0732313 0.0542446 -0.000388807 0.0043288 0.0134955 -0.00658597 0.000474003 0.0128061 0.00233849 0.00547663 0.00774581 0.0189863 0.0143455 -0.0425697 0.0311982 0.0231319
internal_weight=0 21121 1468 818 650 310 136 83 56 53 5767 260 215 149 126 19653 6093 1793 843 4300 1930 1545 1516 1493 1077 1040 152 950 825
internal_count=26888 21121 1468 818 650 310 136 83 56 53 5767 260 215 149 126 19653 6093 1793 843 4300 1930 1545 1516 1493 1077 1040 152 950 825
cat_boundaries=0 2 3 4 5 6 7 8
cat_threshold=273712384 604013056 29 4 41 683 651 2
is_linear=0
shrinkage=0.2


Tree=33
num_leaves=30
num_cat=5
split_feature=9 10 7 3 10 8 7 7 7 8 11 7 11 7 10 0 0 0 10 1 9 7 11 11 7 0 1 11 7
split_gain=4.77869 4.5258 8.83424 6.65074 16.6672 6.9088 12.8085 6.35112 5.92893 9.72896 17.4241 16.7641 19.4244 9.61398 8.70146 8.296 7.87736 8.64684 15.3238 11.937 8.88361 7.41941 6.51996 10.6921 5.78911 5.50524 10.9564 5.50177 22.9667
threshold=1.0000000180025095e-35 336.66707427536238 26.020000000000003 0 311.12600184956858 1 6.6800000000000015 0.94850000000000023 17.810000000000006 2 1.0000000180025095e-35 26.444000000000003 5.495000000000001 18.518000000000004 258.73761492338446 58.521000000000008 33.280500000000011 122.611 274.10019531250003 3 0.098654210581256355 20.557500000000001 -12.828999999999995 -4.3409999999999931 24.003000000000004 26.827500000000004 4 14.935000000000015 14.805500000000002
decision_type=2 2 2 9 2 1 2 2 2 1 2 2 2 2 2 2 2 2 2 1 2 2 2 2 2 2 1 2 2
left_child=-1 3 -3 4 5 6 -2 -6 27 10 21 12 -12 -11 15 25 24 18 20 -19 -18 -10 -23 -24 -16 -15 -27 -5 -29
right_child=1 2 -4 8 7 -7 -8 -9 9 13 11 -13 -14 14 16 -17 17 19 -20 -21 -22 22 23 -25 -26 26 -28 28 -30
leaf_value=0.09772279795259238 -0.005401365620989914 0.0015550337504312887 0.1255844962337743 -0.0019218502595497004 -0.04394035088848703 -0.024930128856130798 0.13904709654885369 -0.12217521823218301 -0.0056003148215157646 0.13428902891842096 0.20003353041229827 -0.11392017345536838 -0.0029522948813709348 0.03053132120985538 -0.0063410315338684161 -0.032401594072580336 -0.1007671815464678 -0.15720031544227492 0.1662183522839438 0.04886680216245029 0.047658555799474318 -0.026791932731866835 -0.27137002527713777 -0.06931974840435115 -0.15346765967318787 0.20798985335756753 0.035519709266149078 -0.012574197256126744 -0.19316410961849939
leaf_weight=20 73 18206 23 6660 98 139 37 72 35 37 33 22 44 32 23 25 23 22 33 23 54 20 20 22 20 34 26 983 29
leaf_count=20 73 18206 23 6660 98 139 37 72 35 37 33 22 44 32 23 25 23 22 33 23 54 20 20 22 20 34 26 983 29
internal_value=0 -7.54165e-05 0.00171152 -0.00384601 -0.028128 0.00416005 0.039587 -0.0770751 -0.00257093 0.0175236 -0.018055 0.0400501 0.0840416 0.0368019 0.0265193 0.0697618 0.000966945 0.0219784 0.052192 -0.0518771 0.0033236 -0.0792194 -0.120779 -0.165534 -0.074772 0.0975236 0.133253 -0.00400961 -0.0177492
internal_weight=0 26868 18229 8639 419 249 110 170 8220 548 196 99 77 352 315 117 198 155 110 45 77 97 62 42 43 92 60 7672 1012
internal_count=26888 26868 18229 8639 419 249 110 170 8220 548 196 99 77 352 315 117 198 155 110 45 77 97 62 42 43 92 60 7672 1012
cat_boundaries=0 1 2 3 4 5
cat_threshold=768 1027 1344 4 4
is_linear=0
shrinkage=0.2


Tree=34
num_leaves=30
num_cat=4
split_feature=11 1 7 11 11 0 7 10 10 7 7 3 0 9 7 0 8 11 8 7 7 11 7 9 10 7 0 7 0
split_gain=4.28019 8.4037 12.4691 7.67339 5.80993 5.08486 4.72133 3.27053 9.65616 14.3323 6.17825 4.90379 10.296 8.63949 7.94239 6.72106 8.88198 9.01826 6.11836 7.81604 15.9071 7.96047 5.87659 5.18486 5.12119 4.98939 14.367 4.85703 4.60055
threshold=-110.86099999999981 0 0.17050000000000004 -85.377499999999998 -182.244 482.22850000000011 1.9385000000000001 262.23677777777783 261.3400000000002 13.010000000000002 27.615000000000006 1 8.5075000000000021 0.11343472750316859 0.079500000000000029 31.206500000000002 2 -0.72200000000000031 3 12.630000000000001 22.550000000000004 -0.80649999999999988 10.010000000000002 0.073923370474326608 256.85528973950034 19.660000000000004 53.856500000000018 24.950000000000003 29.684500000000003
decision_type=2 1 2 2 2 2 2 2 2 2 2 9 2 2 2 2 1 2 1 2 2 2 2 2 2 2 2 2 2
left_child=1 2 -1 -2 -3 -4 -6 8 10 -10 11 15 13 -13 -14 16 -5 23 25 22 21 -21 -20 -18 -17 -16 28 -22 -27
right_child=3 4 5 7 6 -7 -8 -9 9 -11 -12 12 14 -15 18 24 17 -19 19 20 27 -23 -24 -25 -26 26 -28 -29 -30
leaf_value=-0.10986616752393868 0.053181910226142909 -0.012292071523314173 0.0059665482517864028 0.071762310993722364 -0.065759640621642274 0.11377444592437574 -0.17843619417731785 0.00062461852931429776 0.0038190253376960757 -0.22030438298270819 0.089235975786491673 -0.044610868083331194 -0.12726822422648018 -0.1826807917942378 -0.01220964592157543 -0.023598309556408875 0.0029417424014321083 0.029552977124834064 0.002715565484656385 0.17687865457422025 -0.11427615672349929 0.047377733465952754 -0.10885785841848701 -0.11445127657121595 0.053175347833894195 0.068603985384106642 -0.18820861904666975 0.021903891725973651 -0.051032231085830264
leaf_weight=23 109 55 35 107 51 35 21 24655 25 21 27 103 22 22 512 265 27 141 338 37 20 39 20 34 40 20 26 22 36
leaf_count=23 109 55 35 107 51 35 21 24655 25 21 27 103 22 22 512 265 27 141 338 37 20 39 20 34 40 20 26 22 36
internal_value=0 -0.0277861 0.0178926 0.0002252 -0.061236 0.0598705 -0.0986236 7.86165e-06 -0.00797856 -0.0984982 -0.00573749 -0.00713797 -0.0144208 -0.0689112 -0.00831542 0.00741139 0.0283212 0.00167478 -0.00586966 0.0109657 0.0558356 0.110424 -0.00351759 -0.0624904 -0.0135296 -0.0192216 -0.0653476 -0.0429438 -0.00830501
internal_weight=0 220 93 26668 127 70 72 26559 1904 46 1858 1831 1217 125 1092 614 309 202 1070 476 118 76 358 61 305 594 82 42 56
internal_count=26888 220 93 26668 127 70 72 26559 1904 46 1858 1831 1217 125 1092 614 309 202 1070 476 118 76 358 61 305 594 82 42 56
cat_boundaries=0 1 2 3 4
cat_threshold=4 4642 73 1361
is_linear=0
shrinkage=0.2


Tree=35
num_leaves=30
num_cat=7
split_feature=7 0 0 8 0 11 11 7 7 11 11 8 3 0 1 3 0 7 0 11 0 11 3 0 7 0 7 11 3
split_gain=3.565 5.20859 38.274 30.7387 29.1546 35.133 26.3323 16.2333 15.8839 15.3557 14.629 13.9378 13.7439 18.0951 17.7661 27.0048 24.3075 22.5959 16.8789 19.4322 16.2677 16.05 13.2523 13.0064 39.1088 24.1777 25.8763 21.5498 17.4159
threshold=0.17050000000000004 29.684500000000003 25.984500000000004 0 33.280500000000011 2.9005000000000041 0.069499999999999465 2.0585000000000004 1.4335000000000002 -5.95750000000002 -8.4829999999999988 1 2 90.344000000000008 3 4 170.58000000000001 4.0900000000000007 172.09150000000002 89.347999999999999 96.798000000000002 12.307000000000004 5 70.762000000000015 15.330000000000002 76.696500000000029 2.0410000000000004 -10.949999999999998 6
decision_type=2 2 2 1 2 2 2 2 2 2 2 1 9 2 1 9 2 2 2 2 2 2 9 2 2 2 2 2 9
left_child=-1 2 3 22 5 6 8 -7 -3 -10 -4 12 -6 23 16 -16 17 -15 -18 -20 21 -17 -2 28 25 26 -25 -27 -14
right_child=1 4 10 -5 11 7 -8 -9 9 -11 -12 -13 13 14 15 20 18 -19 19 -21 -22 -23 -24 24 -26 27 -28 -29 -30
leaf_value=-0.0048049890356369439 0.037444599998767453 -0.0042452303131293749 -0.021094109200298639 -0.0088444605708158913 0.016393540501767327 -0.080887575082719376 0.080497739646507777 -0.21618395470811624 -0.18585299743217942 -0.040156462578437274 0.061887777550728065 0.0052792655414240393 -0.089966477663160016 0.026430026869543651 0.07568566566179237 0.0038608954829532048 -0.11970620141675076 0.12849263274019548 0.018431508281222933 -0.12725096088509227 -0.030793261329621915 0.17375802475959065 -0.012353572146031574 -0.063493038384864739 -0.30373228952715486 -0.10754170057716202 -0.27536403517569269 0.015496582074396251 -0.010666820828536197
leaf_weight=5019 1008 214 99 3788 812 155 98 46 46 78 600 10230 111 581 111 86 60 102 247 43 1147 30 270 90 24 74 31 247 1441
leaf_count=5019 1008 214 99 3788 812 155 98 46 46 78 600 10230 111 581 111 86 60 102 247 43 1147 30 270 90 24 74 31 247 1441
internal_value=0 0.0011054 0.00626413 0.000210885 -0.000741355 -0.0426738 -0.0107824 -0.111851 -0.0372483 -0.0942052 0.050135 0.000985607 -0.00739762 -0.0117905 -0.000106612 -0.0150052 0.0197101 0.0416722 -0.0231474 -0.00316969 -0.0233897 0.0477998 0.0269096 -0.025785 -0.0550873 -0.0415862 -0.117774 -0.0128674 -0.0169868
internal_weight=0 21869 5765 5066 16104 637 436 201 338 124 699 15467 5237 4425 2407 1374 1033 683 350 290 1263 116 1278 2018 466 442 121 321 1552
internal_count=26888 21869 5765 5066 16104 637 436 201 338 124 699 15467 5237 4425 2407 1374 1033 683 350 290 1263 116 1278 2018 466 442 121 321 1552
cat_boundaries=0 1 2 3 4 5 6 7
cat_threshold=3 195 2952 4 4128 3121 32
is_linear=0
shrinkage=0.2


Tree=36
num_leaves=30
num_cat=1
split_feature=7 11 11 3 7 7 7 11 11 9 11 0 11 11 0 0 10 0 0 0 11 10 0 9 11 0 11 7 7
split_gain=3.61066 6.16086 14.1296 13.9562 12.4799 11.9425 12.7643 10.8207 13.5401 12.4046 10.2933 11.315 9.35887 16.1303 12.3837 12.0909 12.6071 9.33318 8.74008 9.86831 8.70618 10.8833 9.18348 8.66043 8.66874 12.3025 13.4308 10.9524 12.0725
threshold=9.5020000000000007 1.1480000000000017 3.2890000000000006 0 26.020000000000003 26.444000000000003 18.9145 4.437500000000008 6.5354999999999999 0.1024140832017587 -3.9594999999999998 25.488500000000005 -4.7609999999999948 -9.0425000000000022 38.873000000000012 109.56200000000003 267.98278388278396 31.206500000000002 44.856500000000018 60.768000000000008 8.4245000000000463 253.3333333333334 30.250000000000004 0.10634941557837964 -17.2835 116.25750000000001 -29.009999999999994 17.104000000000003 11.510000000000002
decision_type=2 2 2 9 2 2 2 2 2 2 2 2 2 2 2 2 2 2 2 2 2 2 2 2 2 2 2 2 2
left_child=-1 3 -3 5 10 6 12 -4 9 -9 23 -12 13 15 -14 16 -2 -13 -19 -20 22 -22 -10 24 25 -5 -27 28 -26
right_child=1 2 7 4 -6 -7 -8 8 20 -11 11 17 14 -15 -16 -17 -18 18 19 -21 21 -23 -24 -25 27 26 -28 -29 -30
